tree
version=v4
num_class=1
num_tree_per_iteration=1
label_index=0
max_feature_idx=283
objective=regression
feature_names=flow inf_cod inf_nh3 eff_nh3 do_meas DO_reactor MLSS_reactor temp pH NH3_reactor X_A_REACTOR flow_lag_1 flow_lag_3 flow_lag_6 flow_lag_12 flow_lag_24 inf_cod_lag_1 inf_cod_lag_3 inf_cod_lag_6 inf_cod_lag_12 inf_cod_lag_24 inf_nh3_lag_1 inf_nh3_lag_3 inf_nh3_lag_6 inf_nh3_lag_12 inf_nh3_lag_24 eff_nh3_lag_1 eff_nh3_lag_3 eff_nh3_lag_6 eff_nh3_lag_12 eff_nh3_lag_24 do_meas_lag_1 do_meas_lag_3 do_meas_lag_6 do_meas_lag_12 do_meas_lag_24 DO_reactor_lag_1 DO_reactor_lag_3 DO_reactor_lag_6 DO_reactor_lag_12 DO_reactor_lag_24 MLSS_reactor_lag_1 MLSS_reactor_lag_3 MLSS_reactor_lag_6 MLSS_reactor_lag_12 MLSS_reactor_lag_24 temp_lag_1 temp_lag_3 temp_lag_6 temp_lag_12 temp_lag_24 pH_lag_1 pH_lag_3 pH_lag_6 pH_lag_12 pH_lag_24 NH3_reactor_lag_1 NH3_reactor_lag_3 NH3_reactor_lag_6 NH3_reactor_lag_12 NH3_reactor_lag_24 X_A_REACTOR_lag_1 X_A_REACTOR_lag_3 X_A_REACTOR_lag_6 X_A_REACTOR_lag_12 X_A_REACTOR_lag_24 flow_roll_mean_6 flow_roll_range_6 flow_roll_std_6 flow_roll_slope_6 flow_roll_entropy_6 flow_roll_crossrate_6 flow_roll_mean_12 flow_roll_range_12 flow_roll_std_12 flow_roll_slope_12 flow_roll_entropy_12 flow_roll_crossrate_12 flow_roll_mean_24 flow_roll_range_24 flow_roll_std_24 flow_roll_slope_24 flow_roll_entropy_24 flow_roll_crossrate_24 inf_cod_roll_mean_6 inf_cod_roll_range_6 inf_cod_roll_std_6 inf_cod_roll_slope_6 inf_cod_roll_entropy_6 inf_cod_roll_crossrate_6 inf_cod_roll_mean_12 inf_cod_roll_range_12 inf_cod_roll_std_12 inf_cod_roll_slope_12 inf_cod_roll_entropy_12 inf_cod_roll_crossrate_12 inf_cod_roll_mean_24 inf_cod_roll_range_24 inf_cod_roll_std_24 inf_cod_roll_slope_24 inf_cod_roll_entropy_24 inf_cod_roll_crossrate_24 inf_nh3_roll_mean_6 inf_nh3_roll_range_6 inf_nh3_roll_std_6 inf_nh3_roll_slope_6 inf_nh3_roll_entropy_6 inf_nh3_roll_crossrate_6 inf_nh3_roll_mean_12 inf_nh3_roll_range_12 inf_nh3_roll_std_12 inf_nh3_roll_slope_12 inf_nh3_roll_entropy_12 inf_nh3_roll_crossrate_12 inf_nh3_roll_mean_24 inf_nh3_roll_range_24 inf_nh3_roll_std_24 inf_nh3_roll_slope_24 inf_nh3_roll_entropy_24 inf_nh3_roll_crossrate_24 eff_nh3_roll_mean_6 eff_nh3_roll_range_6 eff_nh3_roll_std_6 eff_nh3_roll_slope_6 eff_nh3_roll_entropy_6 eff_nh3_roll_crossrate_6 eff_nh3_roll_mean_12 eff_nh3_roll_range_12 eff_nh3_roll_std_12 eff_nh3_roll_slope_12 eff_nh3_roll_entropy_12 eff_nh3_roll_crossrate_12 eff_nh3_roll_mean_24 eff_nh3_roll_range_24 eff_nh3_roll_std_24 eff_nh3_roll_slope_24 eff_nh3_roll_entropy_24 eff_nh3_roll_crossrate_24 do_meas_roll_mean_6 do_meas_roll_range_6 do_meas_roll_std_6 do_meas_roll_slope_6 do_meas_roll_entropy_6 do_meas_roll_crossrate_6 do_meas_roll_mean_12 do_meas_roll_range_12 do_meas_roll_std_12 do_meas_roll_slope_12 do_meas_roll_entropy_12 do_meas_roll_crossrate_12 do_meas_roll_mean_24 do_meas_roll_range_24 do_meas_roll_std_24 do_meas_roll_slope_24 do_meas_roll_entropy_24 do_meas_roll_crossrate_24 DO_reactor_roll_mean_6 DO_reactor_roll_range_6 DO_reactor_roll_std_6 DO_reactor_roll_slope_6 DO_reactor_roll_entropy_6 DO_reactor_roll_crossrate_6 DO_reactor_roll_mean_12 DO_reactor_roll_range_12 DO_reactor_roll_std_12 DO_reactor_roll_slope_12 DO_reactor_roll_entropy_12 DO_reactor_roll_crossrate_12 DO_reactor_roll_mean_24 DO_reactor_roll_range_24 DO_reactor_roll_std_24 DO_reactor_roll_slope_24 DO_reactor_roll_entropy_24 DO_reactor_roll_crossrate_24 MLSS_reactor_roll_mean_6 MLSS_reactor_roll_range_6 MLSS_reactor_roll_std_6 MLSS_reactor_roll_slope_6 MLSS_reactor_roll_entropy_6 MLSS_reactor_roll_crossrate_6 MLSS_reactor_roll_mean_12 MLSS_reactor_roll_range_12 MLSS_reactor_roll_std_12 MLSS_reactor_roll_slope_12 MLSS_reactor_roll_entropy_12 MLSS_reactor_roll_crossrate_12 MLSS_reactor_roll_mean_24 MLSS_reactor_roll_range_24 MLSS_reactor_roll_std_24 MLSS_reactor_roll_slope_24 MLSS_reactor_roll_entropy_24 MLSS_reactor_roll_crossrate_24 temp_roll_mean_6 temp_roll_range_6 temp_roll_std_6 temp_roll_slope_6 temp_roll_entropy_6 temp_roll_crossrate_6 temp_roll_mean_12 temp_roll_range_12 temp_roll_std_12 temp_roll_slope_12 temp_roll_entropy_12 temp_roll_crossrate_12 temp_roll_mean_24 temp_roll_range_24 temp_roll_std_24 temp_roll_slope_24 temp_roll_entropy_24 temp_roll_crossrate_24 pH_roll_mean_6 pH_roll_range_6 pH_roll_std_6 pH_roll_slope_6 pH_roll_entropy_6 pH_roll_crossrate_6 pH_roll_mean_12 pH_roll_range_12 pH_roll_std_12 pH_roll_slope_12 pH_roll_entropy_12 pH_roll_crossrate_12 pH_roll_mean_24 pH_roll_range_24 pH_roll_std_24 pH_roll_slope_24 pH_roll_entropy_24 pH_roll_crossrate_24 NH3_reactor_roll_mean_6 NH3_reactor_roll_range_6 NH3_reactor_roll_std_6 NH3_reactor_roll_slope_6 NH3_reactor_roll_entropy_6 NH3_reactor_roll_crossrate_6 NH3_reactor_roll_mean_12 NH3_reactor_roll_range_12 NH3_reactor_roll_std_12 NH3_reactor_roll_slope_12 NH3_reactor_roll_entropy_12 NH3_reactor_roll_crossrate_12 NH3_reactor_roll_mean_24 NH3_reactor_roll_range_24 NH3_reactor_roll_std_24 NH3_reactor_roll_slope_24 NH3_reactor_roll_entropy_24 NH3_reactor_roll_crossrate_24 X_A_REACTOR_roll_mean_6 X_A_REACTOR_roll_range_6 X_A_REACTOR_roll_std_6 X_A_REACTOR_roll_slope_6 X_A_REACTOR_roll_entropy_6 X_A_REACTOR_roll_crossrate_6 X_A_REACTOR_roll_mean_12 X_A_REACTOR_roll_range_12 X_A_REACTOR_roll_std_12 X_A_REACTOR_roll_slope_12 X_A_REACTOR_roll_entropy_12 X_A_REACTOR_roll_crossrate_12 X_A_REACTOR_roll_mean_24 X_A_REACTOR_roll_range_24 X_A_REACTOR_roll_std_24 X_A_REACTOR_roll_slope_24 X_A_REACTOR_roll_entropy_24 X_A_REACTOR_roll_crossrate_24 hour_sin hour_cos dow_sin dow_cos month_sin month_cos flow_x_inf_cod MLSS_x_DO temp_x_pH flow_delta_1h inf_cod_delta_1h inf_nh3_delta_1h eff_nh3_delta_1h do_meas_delta_1h DO_reactor_delta_1h MLSS_reactor_delta_1h temp_delta_1h pH_delta_1h NH3_reactor_delta_1h X_A_REACTOR_delta_1h
feature_infos=[30000:100000] [30:850] [3:75] [0.05000000074505806:18] [0.10000000149011612:6.9133286476135254] [0.20000000298023224:6.7411937713623047] [1500:5000] [2.7107217311859131:29.426700592041016] [6.3000001907348633:8.5] [-2:35] [49.303417205810547:220] [30000:100000] [30000:100000] [30000:100000] [30000:100000] [30000:100000] [30:850] [30:850] [30:850] [30:850] [30:850] [3:75] [3:75] [3:75] [3:75] [3:75] [0.05000000074505806:18] [0.05000000074505806:18] [0.05000000074505806:18] [0.05000000074505806:18] [0.05000000074505806:18] [0.10000000149011612:6.9133286476135254] [0.10000000149011612:6.9133286476135254] [0.10000000149011612:6.9133286476135254] [0.10000000149011612:6.9133286476135254] [0.10000000149011612:6.9133286476135254] [0.20000000298023224:6.7411937713623047] [0.20000000298023224:6.7411937713623047] [0.20000000298023224:6.7411937713623047] [0.20000000298023224:6.7411937713623047] [0.20000000298023224:6.7411937713623047] [1500:5000] [1500:5000] [1500:5000] [1500:5000] [1500:5000] [2.7107217311859131:29.426700592041016] [2.7107217311859131:29.426700592041016] [2.7107217311859131:29.426700592041016] [2.7107217311859131:29.426700592041016] [2.7107217311859131:29.426700592041016] [6.3000001907348633:8.5] [6.3000001907348633:8.5] [6.3000001907348633:8.5] [6.3000001907348633:8.5] [6.3000001907348633:8.5] [-2:35] [-2:35] [-2:35] [-2:35] [-2:35] [49.303417205810547:220] [49.303417205810547:220] [49.303417205810547:220] [49.303417205810547:220] [49.303417205810547:220] [52440.4921875:74416.109375] [970.1683349609375:45949.25390625] [348.0399169921875:16832.009765625] [-6715.818359375:6382.421875] [0.45056119561195374:0.69314718246459961] [0.20000000298023224:1] [55732.12109375:70958.3359375] [4074.4814453125:70000] [1275.5697021484375:15270.861328125] [-3690.602294921875:3681.6689453125] [0.28683596849441528:1.3862943649291992] [0.090909093618392944:1] [58924.51953125:67889.578125] [6710.1591796875:70000] [1800.8514404296875:10968.8974609375] [-1902.62744140625:1820.4144287109375] [0.7232545018196106:2.0652832984924316] [0.086956523358821869:0.82608693838119507] [326.85223388671875:526.482421875] [9.3281536102294922:512.18426513671875] [3.5618493556976318:190.53034973144531] [-81.000984191894531:80.261253356933594] [0.45056119561195374:0.69314718246459961] [0.20000000298023224:1] [340.76895141601562:485.75173950195312] [27.078527450561523:512.9539794921875] [8.840947151184082:136.11764526367188] [-40.730480194091797:38.931652069091797] [0.28683596849441528:1.3862943649291992] [0.090909093618392944:1] [351.3916015625:470.30844116210938] [51.541435241699219:519.61236572265625] [14.018401145935059:98.973899841308594] [-20.124614715576172:19.288124084472656] [0.4563344419002533:2.0652832984924316] [0.1304347813129425:0.82608693838119507] [24.928081512451172:50.608802795410156] [1.7260210514068604:46.000926971435547] [0.56240081787109375:16.930469512939453] [-7.79052734375:6.7911496162414551] [0.45056119561195374:0.69314718246459961] [0.20000000298023224:1] [25.673250198364258:47.115791320800781] [4.1804361343383789:46.7431640625] [1.1447968482971191:12.472424507141113] [-3.3249862194061279:3.5796530246734619] [0.28683596849441528:1.3862943649291992] [0.090909093618392944:1] [27.368352890014648:45.097492218017578] [6.3414125442504883:46.7431640625] [1.6127643585205078:9.9296779632568359] [-1.5921546220779419:1.7495142221450806] [0.77922594547271729:2.0652832984924316] [0.1304347813129425:0.86956518888473511] [2.3665645122528076:8.6438026428222656] [0.25977310538291931:13.12153434753418] [0.096443288028240204:4.8783273696899414] [-2.1079869270324707:2.0628931522369385] [0.45056119561195374:0.69314718246459961] [0.20000000298023224:1] [2.7329642772674561:8.2148952484130859] [0.72375398874282837:13.308947563171387] [0.26187047362327576:4.4991955757141113] [-1.1535934209823608:1.0256820917129517] [0.28683596849441528:1.3862943649291992] [0.090909093618392944:1] [2.9093549251556396:7.1752195358276367] [1.1570981740951538:16.476778030395508] [0.33243867754936218:3.3972454071044922] [-0.48829758167266846:0.5246959924697876] [0.4563344419002533:2.0794415473937988] [0.17391304671764374:0.82608693838119507] [1.7565099000930786:3.4549300670623779] [0.056117773056030273:5.2056641578674316] [0.022055482491850853:2.0103218555450439] [-0.82620769739151001:0.69628089666366577] [0.45056119561195374:0.69314718246459961] [0.20000000298023224:1] [2.0397999286651611:3.0948195457458496] [0.39196097850799561:5.2056641578674316] [0.12335539609193802:1.4300541877746582] [-0.38753890991210938:0.38679346442222595] [0.28683596849441528:1.3862943649291992] [0.090909093618392944:0.90909093618392944] [2.2554130554199219:2.7617616653442383] [0.78001290559768677:5.2056641578674316] [0.21707616746425629:1.0115996599197388] [-0.15180070698261261:0.18687283992767334] [0.81464451551437378:2.0794415473937988] [0.043478261679410934:0.78260868787765503] [1.7510823011398315:3.3696060180664062] [0.083105459809303284:4.7424654960632324] [0.033860690891742706:1.7374029159545898] [-0.75163054466247559:0.68363499641418457] [0.45056119561195374:0.69314718246459961] [0.20000000298023224:1] [2.0719335079193115:2.9777243137359619] [0.39845457673072815:5.2988615036010742] [0.12032511085271835:1.3476649522781372] [-0.37763109803199768:0.40763416886329651] [0.28683596849441528:1.3862943649291992] [0.090909093618392944:0.90909093618392944] [2.1370742321014404:2.7029435634613037] [0.72539150714874268:5.2988615036010742] [0.21399456262588501:0.97056597471237183] [-0.161484494805336:0.17315027117729187] [0.81464451551437378:2.0794415473937988] [0.043478261679410934:0.82608693838119507] [2506.1591796875:3875.385009765625] [73.79827880859375:2447.89404296875] [28.357004165649414:893.70330810546875] [-379.93682861328125:369.94998168945312] [0.45056119561195374:0.69314718246459961] [0.20000000298023224:1] [2627.265869140625:3745.12255859375] [157.37841796875:2447.89404296875] [48.972713470458984:637.851806640625] [-214.20626831054688:182.61312866210938] [0.28683596849441528:1.3862943649291992] [0.090909093618392944:1] [2698.110595703125:3686.473876953125] [303.98880004882812:2872.572998046875] [87.015960693359375:464.07693481445312] [-90.840644836425781:92.71685791015625] [0.61599057912826538:2.0652832984924316] [0.1304347813129425:0.86956518888473511] [3.3187518119812012:26.815824508666992] [0.20328851044178009:10.222358703613281] [0.066809698939323425:4.0804615020751953] [-1.7225643396377563:1.5681412220001221] [0.45056119561195374:0.69314718246459961] [0.20000000298023224:1] [3.8284323215484619:26.213825225830078] [0.85945135354995728:11.141568183898926] [0.28308042883872986:2.9518852233886719] [-0.88083851337432861:0.89358150959014893] [0.28683596849441528:1.3862943649291992] [0.090909093618392944:0.90909093618392944] [4.7949905395507812:25.333356857299805] [2.7334942817687988:11.626715660095215] [0.76295769214630127:2.257805347442627] [-0.38678473234176636:0.40574339032173157] [0.97982031106948853:2.0652832984924316] [0.043478261679410934:0.52173912525177002] [6.8371777534484863:7.7907271385192871] [0.016437122598290443:1.4457011222839355] [0.006704836618155241:0.5754237174987793] [-0.22321352362632751:0.24535851180553436] [0.45056119561195374:0.69314718246459961] [0.20000000298023224:1] [6.8676156997680664:7.7669415473937988] [0.062025647610425949:1.6510070562362671] [0.019447483122348785:0.44201254844665527] [-0.10938801616430283:0.1223667785525322] [0.28683596849441528:1.3862943649291992] [0.090909093618392944:1] [6.9127388000488281:7.6787610054016113] [0.12195031344890594:1.6510070562362671] [0.035616468638181686:0.32400929927825928] [-0.063086405396461487:0.061202261596918106] [0.28683596849441528:2.0652832984924316] [0.043478261679410934:0.69565218687057495] [13.220751762390137:27.717998504638672] [0.75932818651199341:29.972528457641602] [0.28316867351531982:10.993147850036621] [-4.4801292419433594:4.5269384384155273] [0.45056119561195374:0.69314718246459961] [0.20000000298023224:1] [14.697925567626953:26.310785293579102] [1.4033550024032593:31.127147674560547] [0.45938026905059814:8.3456134796142578] [-2.2754585742950439:2.4474620819091797] [0.28683596849441528:1.3862943649291992] [0.090909093618392944:1] [15.347456932067871:25.3004150390625] [4.3011255264282227:31.127147674560547] [1.2810966968536377:6.0335178375244141] [-1.1443350315093994:1.1399831771850586] [0.67497545480728149:2.0652832984924316] [0.17391304671764374:0.86956518888473511] [109.86309814453125:157.02958679199219] [4.5198025703430176:111.07938385009766] [1.7161986827850342:39.515998840332031] [-15.304424285888672:16.520051956176758] [0.45056119561195374:0.69314718246459961] [0.20000000298023224:1] [120.97261810302734:146.30352783203125] [9.37359619140625:114.037353515625] [2.5393433570861816:27.619497299194336] [-7.9620542526245117:8.6095542907714844] [0.28683596849441528:1.3862943649291992] [0.090909093618392944:1] [126.96511840820312:141.97816467285156] [21.218328475952148:114.037353515625] [5.8123354911804199:22.612852096557617] [-4.7757625579833984:3.8222959041595459] [0.96128576993942261:2.0652832984924316] [0.1304347813129425:0.86956518888473511] [-1:1] [-1:1] [-0.97492790222167969:0.97492790222167969] [-0.90096884965896606:1] [-1:1] [-1:0.86602538824081421] [2012260:56838760] [531.46795654296875:22356.62109375] [19.50567626953125:214.73675537109375] [-44550.0234375:40610.46484375] [-472.682373046875:462.7247314453125] [-41.870670318603516:42.542575836181641] [-11.963045120239258:10.978279113769531] [-4.7269644737243652:4.7955350875854492] [-3.8903279304504395:4.0679454803466797] [-2270.643798828125:2139.91748046875] [-9.7108745574951172:9.4827003479003906] [-1.3024214506149292:1.3211147785186768] [-26.865549087524414:27.415365219116211] [-98.444404602050781:91.649696350097656]
tree_sizes=5167 5385 5410 5373 5407 5447 5461 5386 5449 5451 5378 5447 5444 5414 5442 5432 5464 5401 5457 5467 5397 5431 5482 5430 5429 5401 5415 5417 5445 5440 5447 5439 5436 5504 5410 5460 5461 5497 5470 5467 5499 5526 5483 5490 5485 5487 5431 5021 5002 5485 5466 5478 5480 5422 5361 5339 5170 5529 5494 5506 4570 5441 5505 4944 4936 5316 4435 4921 4516 5105 4504 4752 4163 4929 4921 5178 4077 5506 4243 4766 4102 4934 4009 4529 4188 4033 3845 3497 4659 4363 3087 3090 3616 4029 3263 2727 3787 2812 3831 3659 3934 4028 2840 3168 3757 3009 3670 3775 3436 3854 3520 3161 3445 3012 3415 2567 3257 2312 3661 3125 2132 2405 2469 3735 1976 3093 2499 2058 2746 2308 3157 2540 2561 3073 2807 1975 2496 2058 2598 2672 2843 3370 2157 3022 2665 2323 2946 3097 2681 1813 3156 2889 2816 2905 3146 2134 2772 2832 3669 2317 3706 1697 3619 2046 3722 1549 3508 2241 2324 2842 1632 1627 1888 1539 1365

Tree=0
num_leaves=63
num_cat=0
split_feature=7 7 7 1 6 87 1 6 6 6 272 1 198 6 1 177 6 93 274 1 6 1 272 246 6 1 1 1 174 274 189 6 1 91 275 6 6 272 6 1 272 1 273 7 6 198 1 3 1 93 93 6 6 133 57 49 1 7 174 6 6 183
split_gain=396331 66257.6 29479.4 14343.9 12256.2 10455.6 7826.6 6592.58 5341.29 4897.63 4522.79 3581.86 3546.68 3020.48 2766.05 2675.87 2375.55 2358.28 2186.2 2101.53 2080.26 2432.79 1845.74 1812.99 1744.38 1609.74 1599.73 1559.03 1544.25 1522.74 1507.59 1474.94 1414.52 1406.28 1276.04 1186.88 1140.93 1127.6 1119.59 1045.55 938.037 919.29 832.087 808.108 789.421 783.633 765.429 757.716 755.363 746.368 738.152 718.626 662.791 624.077 564.824 563.676 490.155 488.964 485.431 465.511 456.417 452.293
threshold=16.4008903503418 9.5477781295776385 19.898601531982425 417.80699157714849 3382.950317382813 -1.0875204205512998 406.26652526855474 3609.3134765625005 3461.3427734375005 3071.385620117188 88.037727355957045 372.94250488281256 11.838514328002931 2779.967651367188 441.51879882812506 -7.7058932781219474 2754.874633789063 2.6495862007141118 -25.680203437805172 436.40115356445318 3445.1740722656255 392.52009582519537 178.24628448486331 129.86389923095706 3106.4467773437505 447.63529968261724 445.08027648925787 408.54757690429693 3352.5363769531255 -32.212465286254876 7.9836626052856454 3559.1586914062505 400.74833679199224 97.809604644775405 3.9867099523544316 2852.312866210938 3455.813110351563 112.53516769409181 3238.2893066406255 375.65950012207037 166.00946807861331 457.57815551757818 202.45585632324222 18.243975639343265 3743.6882324218755 6.9413673877716073 378.51507568359381 3.6912392377853398 367.65245056152349 -1.2619801163673399 -2.0740360021591182 3225.786987304688 3591.2446289062505 2.9886705875396733 22.932768821716312 20.194279670715336 379.86630249023443 22.577459335327152 3547.1042480468755 3333.079956054688 2875.2053222656255 -9.0860466957092267
decision_type=2 2 2 2 2 2 2 2 2 2 2 2 2 2 2 2 2 2 2 2 2 2 2 2 2 2 2 2 2 2 2 2 2 2 2 2 2 2 2 2 2 2 2 2 2 2 2 2 2 2 2 2 2 2 2 2 2 2 2 2 2 2
left_child=1 3 8 9 19 12 22 10 18 11 17 -1 13 -3 28 40 53 35 -2 24 21 48 36 -16 54 47 -9 -10 -6 42 37 -25 60 45 -35 -7 46 49 -24 -18 59 55 -15 61 -28 -21 -4 -17 -11 -14 -32 -23 -30 -12 -5 -29 -40 -38 -31 -8 -13 -20
right_child=2 5 6 4 14 7 15 26 27 20 16 32 30 29 23 25 39 -19 43 33 -22 51 38 31 -26 -27 44 41 52 58 50 -33 -34 34 -36 -37 57 -39 56 -41 -42 -43 -44 -45 -46 -47 -48 -49 -50 -51 -52 -53 -54 -55 -56 -57 -58 -59 -60 -61 -62 -63
leaf_value=68.849427200099484 68.445094520240218 68.985532805976575 68.141824619913365 69.179507027212082 69.071774982418972 69.037677896463023 68.523851003930631 68.528878796871382 68.241330888450705 68.707344813961726 68.836710218564278 69.081481144568002 68.592472574464892 68.455083220611314 69.261097214214956 68.155854174191376 68.666792011239664 69.136971388412249 68.754005935949692 69.234258438656809 68.751284251805274 69.00933349313334 68.136362666483208 69.077520403076079 69.071178705567178 68.412581243286468 68.795903893379702 68.432522131064786 68.892132561762679 68.790455963004746 68.346195102637793 68.91444442440374 69.150174959794427 69.24967957683144 69.493267345460268 68.861153098519594 68.145156768278909 68.510918961804791 67.893582556425983 68.787583193465125 68.321631709696874 68.569633634883644 68.665312332150009 68.557977800270592 68.616229294991371 69.072642694814803 68.252188206822964 68.265088441164735 68.848305956997976 68.702019239395241 68.542900553831842 68.910624175208781 68.760931441598302 69.006924501947736 69.34116815075943 68.295751936202592 68.040461970643037 67.998103604671016 68.665679551635506 68.389879846095781 68.982470792210066 68.637916647754622
leaf_weight=99 65 36 96 61 35 46 47 70 47 45 34 61 113 30 30 116 92 51 57 139 108 122 89 123 168 43 52 132 114 84 30 85 100 47 35 136 54 73 36 215 95 37 39 60 38 35 152 122 142 111 41 149 50 46 31 35 64 38 42 48 145 64
leaf_count=99 65 36 96 61 35 46 47 70 47 45 34 61 113 30 30 116 92 51 57 139 108 122 89 123 168 43 52 132 114 84 30 85 100 47 35 136 54 73 36 215 95 37 39 60 38 35 152 122 142 111 41 149 50 46 31 35 64 38 42 48 145 64
internal_value=68.7108 68.8943 68.3059 69.008 69.0907 68.7356 68.212 68.808 68.4948 68.9269 68.8523 69.0065 68.6413 68.7335 68.9737 68.3012 68.7894 68.9567 68.5942 69.1898 68.8698 68.8977 68.1327 69.0428 69.1292 68.2422 68.6363 68.3974 68.891 68.6868 68.5835 69.011 69.0573 69.2511 69.3545 68.9059 68.1751 68.6133 68.0569 68.7514 68.3886 68.4336 68.5736 68.6479 68.72 69.202 68.2092 68.2116 68.8144 68.6467 68.4593 68.9552 68.8522 68.9349 69.2346 68.4036 67.9868 68.0837 68.7488 68.4559 69.012 68.6926
internal_weight=4800 3303 1497 1924 953 1379 1000 780 497 971 620 405 599 231 437 471 387 233 246 516 566 458 529 238 260 281 160 251 199 195 368 208 306 256 82 182 340 297 189 307 190 204 69 181 90 174 248 238 187 224 71 271 164 80 92 167 100 92 126 95 206 121
internal_count=4800 3303 1497 1924 953 1379 1000 780 497 971 620 405 599 231 437 471 387 233 246 516 566 458 529 238 260 281 160 251 199 195 368 208 306 256 82 182 340 297 189 307 190 204 69 181 90 174 248 238 187 224 71 271 164 80 92 167 100 92 126 95 206 121
is_linear=0
shrinkage=1


Tree=1
num_leaves=63
num_cat=0
split_feature=46 272 46 1 6 99 1 6 6 1 6 1 1 1 6 6 1 6 189 1 192 46 6 46 6 192 91 6 201 1 275 1 22 123 6 183 245 46 86 272 1 6 279 189 279 144 6 194 1 123 6 1 265 6 1 85 272 110 272 46 6 187
split_gain=369518 66313.7 24960 14124.9 15582.7 8069.49 5701.67 5591.18 5358.05 4622.83 4106.8 4304.54 4039.95 3172.61 3766.17 2684.84 2475.79 2423.24 2365.36 2141.24 1816 1714.32 1706.53 1696.13 1651.8 1391.87 1369.11 1289.84 1220.55 1210.84 1111.65 1103.1 1090.43 1060.15 1059 1019.88 1018.98 959.795 955.63 889.139 824.804 804.231 735.901 728.687 723.066 693.262 678.16 671.074 664.389 649.02 640.715 628.517 619.388 579.183 713.491 557.254 537.185 507.397 486.432 479.889 442.374 413.561
threshold=16.670435905456547 74.862815856933608 20.676552772521976 403.10585021972662 3382.950317382813 0.26012355089187628 392.52009582519537 3464.407104492188 2856.6730957031255 434.07929992675787 3538.998901367188 358.21502685546881 436.40115356445318 367.10510253906256 3066.2956542968755 3034.464965820313 386.24575805664068 3548.8164062500005 1.8545908331871035 414.99090576171881 19.120418548583988 11.497092723846437 3566.0178222656255 13.014913558959963 2746.1962890625005 12.997298717498781 97.809604644775405 2779.967651367188 -0.10172742977738379 355.20466613769537 3.9867099523544316 434.93841552734381 38.424446105957038 -0.13526906073093412 3455.813110351563 5.006599187850953 0.41304346919059759 5.4983258247375497 31.119646072387699 181.283317565918 411.04508972167974 3505.0720214843755 67.648525238037124 -6.706066131591796 -202.62250518798825 2.3445861339569096 2954.7275390625005 0.45598000288009649 428.43737792968756 0.22135815024375918 3481.783813476563 422.59852600097662 -0.12940952181816107 2932.293579101563 434.07929992675787 77.195571899414077 178.24628448486331 3.5390795469284062 49.288095474243171 9.1738386154174822 3631.6213378906255 643.72381591796886
decision_type=2 2 2 2 2 2 2 2 2 2 2 2 2 2 2 2 2 2 2 2 2 2 2 2 2 2 2 2 2 2 2 2 2 2 2 2 2 2 2 2 2 2 2 2 2 2 2 2 2 2 2 2 2 2 2 2 2 2 2 2 2 2
left_child=1 3 7 13 12 10 35 20 16 22 11 24 15 46 43 32 61 28 31 60 29 41 37 -18 -3 -12 47 -13 -11 -2 -28 44 -5 57 58 56 -26 -6 -19 50 -22 -10 -21 -15 -8 -35 -1 -14 -17 -29 -20 -27 -44 -31 -55 -33 -4 -23 -16 -45 -9 -7
right_child=2 5 6 4 9 8 18 19 21 17 25 27 26 14 34 48 23 38 39 42 40 33 -24 -25 36 51 30 49 -30 53 -32 55 -34 45 -36 -37 -38 -39 -40 -41 -42 -43 52 59 -46 -47 -48 -49 -50 -51 -52 -53 -54 54 -56 -57 -58 -59 -60 -61 -62 -63
leaf_value=0.11210847409495577 -0.23475239979089607 0.011664547609533707 -0.5127653054092125 0.4410778218702322 0.30610652949744621 0.0454270547314694 -0.32347131479798058 -0.39553035066261916 0.24451722102911291 0.45473982733591267 -0.087540559528577921 0.17613897635141221 0.35885028087879378 0.35796154547266834 0.17681466551693492 0.30951606643319912 0.50294230242214544 0.16087785151775566 -0.42616705136293903 -0.21845915270861849 -0.37505738565998692 -0.16454948828995866 0.016442899029058818 0.21419051738631012 -0.33533793432344572 -0.31352844464584179 0.52035363944472768 0.0030754970123967156 0.2987331402810795 0.02208962609622684 0.74449004412340014 -0.37002489957203816 0.64957076836265992 0.13148195795700277 -0.0039533950761768671 -0.66147538272765849 -0.13979534485499984 0.13544375562082583 0.34786880037792234 -0.62909034763267657 -0.17745687387427503 0.042867705021981777 -0.43997173021266184 0.27479665865189712 -0.44339164396995884 0.0078308864903637639 -0.015024017506921795 0.50251909595050304 0.41243456913925575 0.14362352249559418 -0.54219074765615649 -0.17727744984856345 -0.27697997518127426 -0.17422951904430892 0.0029503917819860143 -0.19279633373497299 -0.61625470092715573 -0.008611538400136131 0.083594331761603774 0.15806726199432011 -0.53125299204950738 0.19508836455667133
leaf_weight=73 41 54 124 101 40 36 60 55 44 75 101 60 39 81 191 288 39 121 91 97 34 42 92 35 31 55 47 223 117 59 37 31 30 51 46 137 107 116 31 50 44 30 34 150 208 203 78 138 72 34 88 70 58 49 35 34 79 34 69 41 39 31
leaf_count=73 41 54 124 101 40 36 60 55 44 75 101 60 39 81 191 288 39 121 91 97 34 42 92 35 31 55 47 223 117 59 37 31 30 51 46 137 107 116 31 50 44 30 34 150 208 203 78 138 72 34 88 70 58 49 35 34 79 34 69 41 39 31
internal_value=-0.00241469 0.170501 -0.403082 0.275333 0.333012 0.000711288 -0.49994 -0.242709 0.0881798 0.217811 -0.0641454 -0.0168756 0.423657 0.16896 0.200946 0.372759 0.247337 0.288993 -0.441058 -0.335167 -0.14274 0.0325774 0.118985 0.366884 -0.128943 -0.170539 0.519216 0.0510112 0.359894 -0.0912055 0.619884 -0.389677 0.489306 0.00328687 0.128662 -0.597101 -0.183954 0.179391 0.199238 -0.515558 -0.263999 0.162976 -0.276647 0.282176 -0.416686 0.0327122 0.0464511 0.471101 0.330217 0.0217297 -0.483494 -0.237455 -0.337661 -0.0498925 -0.100453 -0.277805 -0.553338 -0.0949302 0.152129 0.249851 -0.452377 0.114906
internal_weight=4800 3353 1447 2073 1344 1280 902 545 545 592 735 509 752 729 578 491 141 344 562 283 262 404 248 74 192 226 261 317 192 184 84 333 131 330 306 340 138 156 152 229 78 74 189 272 268 254 151 177 360 257 179 125 92 143 84 65 203 76 260 191 94 67
internal_count=4800 3353 1447 2073 1344 1280 902 545 545 592 735 509 752 729 578 491 141 344 562 283 262 404 248 74 192 226 261 317 192 184 84 333 131 330 306 340 138 156 152 229 78 74 189 272 268 254 151 177 360 257 179 125 92 143 84 65 203 76 260 191 94 67
is_linear=0
shrinkage=0.03


Tree=2
num_leaves=63
num_cat=0
split_feature=7 7 7 87 87 6 84 6 3 272 7 198 6 6 6 6 177 270 271 274 6 4 87 6 7 270 3 189 183 6 3 272 87 87 87 183 62 279 274 272 84 6 270 7 281 3 150 75 87 274 189 87 133 6 7 18 270 274 274 183 172 183
split_gain=351395 58658.1 26063.5 11535.5 9439.94 5919.86 4854.39 4719.88 4101.04 4035.1 3868.03 3194.15 2803.41 2301.85 2262.63 2115.42 2056 1987.89 1978.05 1977.79 1970.86 1721.12 1580.99 1580.51 1439.76 1426.12 1413.67 1380.62 1374.5 1351.74 1341 1028.4 1022.08 1001.99 943.323 910.214 846.591 789.771 774.849 767.857 764.054 761.923 735.306 722.331 704.681 700.57 698.844 698.643 661.994 644.896 642.774 612.125 587.393 549.429 547.728 540.457 480.668 441.673 431.549 421.396 385.812 361.3
threshold=16.4008903503418 9.5477781295776385 19.898601531982425 0.57308843731880199 -1.0875204205512998 3609.3134765625005 409.55990600585943 3461.3427734375005 6.2714679241180429 88.037727355957045 7.3813412189483651 11.838514328002931 2794.157348632813 2937.185668945313 3577.7148437500005 2754.874633789063 -15.453124046325682 25476828.000000004 6374.9252929687509 -25.680203437805172 3373.8413085937505 2.0498615503311162 -8.8807096481323224 3225.786987304688 25.616165161132816 22677215.000000004 3.6912392377853398 7.9836626052856454 -10.098680973052977 3484.700561523438 5.0608222484588632 112.53516769409181 3.3656557798385625 2.8168640136718754 4.1649792194366464 -15.418823719024656 130.11277008056643 119.19213485717775 28.586720466613773 163.45414733886722 423.87287902832037 3519.7541503906255 25549195.000000004 18.243975639343265 -0.0084009417332708818 5.8866221904754648 2.5038812160491948 97.923751831054702 -4.6345996856689444 -0.34132669866085047 -5.4932165145874015 -5.8163836002349845 2.9886705875396733 3636.4711914062505 24.272433280944828 435.37359619140631 27380292.000000004 -14.239658832550047 -35.678949356079094 -9.0860466957092267 1.9070527553558352 -10.098680973052977
decision_type=2 2 2 2 2 2 2 2 2 2 2 2 2 2 2 2 2 2 2 2 2 2 2 2 2 2 2 2 2 2 2 2 2 2 2 2 2 2 2 2 2 2 2 2 2 2 2 2 2 2 2 2 2 2 2 2 2 2 2 2 2 2
left_child=1 3 7 8 11 9 20 19 14 21 13 12 -3 -5 22 52 56 45 -10 61 24 -6 55 42 33 -14 54 31 50 -19 -7 51 40 58 -17 -24 47 -38 -23 53 49 -25 -20 59 -32 -15 -27 -30 -29 -9 -12 -13 -11 -18 -22 -1 -8 -41 -4 -21 -35 -2
right_child=2 4 6 10 5 30 16 32 18 15 28 27 25 17 -16 34 39 29 23 43 26 38 35 41 -26 46 -28 48 36 -31 44 -33 -34 60 -36 -37 37 -39 -40 57 -42 -43 -44 -45 -46 -47 -48 -49 -50 -51 -52 -53 -54 -55 -56 -57 -58 -59 -60 -61 -62 -63
leaf_value=-0.015372925217057999 -0.17671135890127415 0.23722643668104282 -0.56567820372854827 0.60386453792547723 0.42775432882071235 -0.16396160736033857 -0.33348337220143082 -0.52095137760186883 0.52673961659528046 0.11456847033455225 0.46912258783976235 -0.12170906825125154 -0.21661200072652273 0.14801607271113731 0.025593301581043608 -0.0084442034925800609 -0.35831904184590896 0.42951610839859428 0.27314669816324549 0.040090294637164389 -0.5938097228071072 0.15929919528948686 0.29347549592660727 0.24638646504489292 -0.58833069533539673 -0.038786403193864283 -0.47794995014745739 -0.33249727837101567 0.39846985745617719 0.29027803196543622 0.11252323570669205 -0.19257121114414466 -0.20675234651672397 -0.29130279986962776 0.097943724066915303 0.1921604760415489 0.23955755663954692 0.091658463001587961 0.29131852635087813 -0.58064878378128459 -0.29105867299089255 0.089557819249227108 0.41790652014535185 -0.14645746543197682 -0.063496916781496368 0.33483096484190372 0.095584952699131323 0.20508328288506081 -0.14840848613498556 -0.32274473171297496 0.29942456777938109 -0.021042085807361305 0.27967120650404181 -0.50186299065563156 -0.71154521836663176 0.12958824085238377 -0.21246252889404751 -0.44571888709450785 -0.46088882246122809 -0.071963265612140281 -0.42756749554143114 -0.32009790495929552
leaf_weight=33 30 43 47 47 34 76 76 31 31 34 35 93 31 38 86 177 110 392 59 57 96 143 99 127 90 105 70 36 38 76 35 73 78 41 130 425 85 53 56 40 112 36 71 60 49 35 52 31 35 30 50 131 46 32 65 77 50 56 190 64 37 35
leaf_count=33 30 43 47 47 34 76 76 31 31 34 35 93 31 38 86 177 110 392 59 57 96 143 99 127 90 105 70 36 38 76 35 73 78 41 130 425 85 53 56 40 112 36 71 60 49 35 52 31 35 30 50 131 46 32 65 77 50 56 190 64 37 35
internal_value=-0.00234224 0.170461 -0.383606 0.277488 0.0211243 0.0899053 -0.471857 -0.205974 0.210003 0.131888 0.357514 -0.0684354 0.018989 0.401886 0.170064 0.072461 -0.384199 0.384225 0.298669 -0.1125 -0.521953 0.230507 0.189649 0.274356 -0.481645 -0.0310107 -0.592371 -0.123312 0.268044 0.406978 -0.0727396 -0.0948256 -0.297492 -0.450977 0.0366135 0.21136 0.226085 0.182885 0.196593 -0.436197 -0.338243 0.211844 0.352491 -0.0614345 0.00985573 0.237961 0.00573218 0.312052 -0.242128 -0.42421 0.369805 -0.0628859 0.209771 -0.391018 -0.641773 0.0860982 -0.28569 -0.502517 -0.481912 -0.0191634 -0.356444 -0.254339
internal_weight=4800 3303 1497 1924 1379 780 1000 497 1044 620 880 599 231 588 720 387 364 541 324 246 636 233 634 293 405 188 231 368 292 468 160 297 251 315 307 524 207 138 199 238 173 163 130 181 84 73 157 69 71 61 85 224 80 142 161 110 126 96 237 121 78 65
internal_count=4800 3303 1497 1924 1379 780 1000 497 1044 620 880 599 231 588 720 387 364 541 324 246 636 233 634 293 405 188 231 368 292 468 160 297 251 315 307 524 207 138 199 238 173 163 130 181 84 73 157 69 71 61 85 224 80 142 161 110 126 96 237 121 78 65
is_linear=0
shrinkage=0.03


Tree=3
num_leaves=63
num_cat=0
split_feature=7 7 7 1 6 87 1 6 6 6 1 272 272 6 1 177 6 177 274 5 1 246 6 272 1 1 1 41 1 6 91 93 103 6 6 6 93 1 272 1 6 93 6 6 274 281 276 1 1 212 274 93 129 133 114 49 1 120 6 6 7 272
split_gain=330658 55195.2 24524.5 12396.2 10422.1 8883.13 6751.15 5593.3 4441.3 4256.05 4655.86 3377.06 3044.89 3313.51 2374.69 2292.98 2035.31 1991.82 1874.86 1814.14 1777.8 1671.64 1596.78 1578.71 1558.96 1521.8 1432.41 1353.08 1342.11 1265.22 1228.08 1219.02 1058.53 1016.02 999.728 990.219 954.395 904.157 823.488 818.714 802.205 828.655 795.088 789.929 705.718 691.516 691.482 667.928 650.986 607.341 599.33 591.925 559.078 552.693 525.007 506.785 452.846 440.28 439.439 433.593 429.428 404.182
threshold=16.4008903503418 9.5477781295776385 19.898601531982425 417.80699157714849 3380.5715332031255 -1.0875204205512998 406.26652526855474 3659.282348632813 3461.3427734375005 3225.786987304688 372.94250488281256 88.037727355957045 98.483024597167983 2746.1962890625005 441.51879882812506 -7.7058932781219474 2754.874633789063 29.292249679565433 -6.1462903022766104 1.9989930987358095 436.79595947265631 129.86389923095706 3066.2956542968755 178.24628448486331 400.74833679199224 445.08027648925787 447.63529968261724 3312.848999023438 408.54757690429693 3559.1586914062505 97.809604644775405 -1.7798475027084348 9.8737149238586444 3455.813110351563 3238.2893066406255 3445.1740722656255 2.471912264823914 375.65950012207037 166.00946807861331 457.57815551757818 3645.6477050781255 0.87013775110244762 2881.5920410156255 2875.2053222656255 -24.501605987548825 0.002855048631317914 -1.0676445364952085 378.51507568359381 387.08761596679693 0.066398594528436675 -44.333538055419915 2.8733818531036381 0.024797959253191951 2.9886705875396733 35.866893768310554 20.194279670715336 379.86630249023443 3.7578518390655522 3086.6943359375005 3333.079956054688 22.577459335327152 43.556802749633796
decision_type=2 2 2 2 2 2 2 2 2 2 2 2 2 2 2 2 2 2 2 2 2 2 2 2 2 2 2 2 2 2 2 2 2 2 2 2 2 2 2 2 2 2 2 2 2 2 2 2 2 2 2 2 2 2 2 2 2 2 2 2 2 2
left_child=1 3 8 9 20 12 23 11 18 10 58 19 13 -3 27 38 53 44 50 -7 22 -16 54 33 43 -9 52 -6 -10 -23 49 -19 -32 47 -25 48 -21 -18 59 55 41 -14 -26 -12 -15 -27 -29 -4 -11 -22 -2 -20 57 -13 -5 -30 -36 -17 -1 -8 -35 -50
right_child=2 5 6 4 14 7 15 25 28 35 24 16 40 17 21 26 37 31 51 36 30 29 -24 34 42 45 -28 46 39 -31 32 -33 -34 60 56 -37 -38 -39 -40 -41 -42 -43 -44 -45 -46 -47 -48 -49 61 -51 -52 -53 -54 -55 -56 -57 -58 -59 -60 -61 -62 -63
leaf_value=0.120069969555418 -0.30277708865330716 0.23190838942012817 -0.52292228756939585 0.40619131170634015 0.31991666783121159 0.42655519410819304 -0.16547640332228436 -0.22679754522478507 -0.43340686454894434 0.054718275733044185 0.33843859950376215 0.11114149388941852 -0.1559060794628814 -0.063707933792573598 0.5130436335132762 -0.53477488877309765 -0.044950737327470749 -0.29292775837263263 -0.078981134895813598 0.14532992005297143 0.4879403598918472 0.33424392723537666 0.33733192347464347 -0.52648430750426223 0.48889482925985461 0.092355589451633871 -0.2688657872389198 0 -0.25593113911052623 0.18345779039184579 0.50032596686277964 -0.053863345929233211 0.72517848438366661 -0.52086080415411917 -0.75686537121801811 0.032235786746859993 0.29657627998667291 0.066000253598355721 -0.35672436338493879 -0.12668993155268646 -0.26422789438732974 -0.0036421446738778241 0.32302658909037563 0.21735493195012892 0.040135401918280217 -0.095534140972225248 0.15563154142358482 -0.41990030219098756 0.21180703004565807 0.36292504666215281 -0.15245207138459371 0.054129427321207749 -0.39328389367580996 0.27129927740696969 0.57599711132745668 -0.38553744658445699 -0.61633206041666355 -0.42866984285756637 0.00094642461079546777 -0.29462885820939977 -0.6584752048282172 0.11773574826022126
leaf_weight=105 34 44 96 30 40 30 47 50 47 57 61 34 150 101 30 93 92 40 83 175 116 124 190 89 32 32 43 32 132 85 48 37 33 54 36 108 48 234 95 37 45 41 153 247 141 39 131 152 98 53 82 47 82 46 41 35 64 63 38 48 38 72
leaf_count=105 34 44 96 30 40 30 47 50 47 57 61 34 150 101 30 93 92 40 83 175 116 124 190 89 32 32 43 32 132 85 48 37 33 54 36 108 48 234 95 37 45 41 153 247 141 39 131 152 98 53 82 47 82 46 41 35 64 63 38 48 38 72
internal_value=-0.00227349 0.165354 -0.372116 0.269173 0.346049 0.0204915 -0.457722 0.0872133 -0.199808 0.193692 0.23928 0.121638 -0.0663866 -0.0118296 0.23927 -0.374913 0.0679895 -0.0455202 -0.109134 0.207657 0.438339 0.30339 0.38312 -0.531362 0.282995 -0.100193 -0.429464 0.163652 -0.288584 0.273051 0.495799 -0.17831 0.592751 -0.492194 -0.60151 0.107088 0.178017 0.0346755 -0.294035 -0.255008 -0.150249 -0.123256 0.351982 0.241448 -0.00320019 -0.0107985 0.125113 -0.459987 0.142657 0.44899 -0.196762 -0.0308289 -0.458342 0.203493 0.504963 -0.283327 -0.66766 -0.492246 0.0884585 -0.231005 -0.578387 0.172075
internal_weight=4800 3303 1497 1924 953 1379 1000 780 497 971 636 659 599 363 442 471 406 319 246 253 511 239 261 529 493 121 281 203 251 209 250 77 81 340 189 335 223 326 190 204 236 191 185 308 242 71 163 248 227 169 116 130 238 80 71 167 100 156 143 95 92 170
internal_count=4800 3303 1497 1924 953 1379 1000 780 497 971 636 659 599 363 442 471 406 319 246 253 511 239 261 529 493 121 281 203 251 209 250 77 81 340 189 335 223 326 190 204 236 191 185 308 242 71 163 248 227 169 116 130 238 80 71 167 100 156 143 95 92 170
is_linear=0
shrinkage=0.03


Tree=4
num_leaves=63
num_cat=0
split_feature=50 192 204 1 6 87 1 6 6 6 1 87 192 1 6 93 279 6 1 198 6 1 93 34 1 6 3 6 1 6 180 275 137 1 1 123 50 6 3 6 192 93 201 1 6 6 133 6 1 279 123 192 44 6 6 87 6 279 204 6 204 276
split_gain=309277 45177.1 30944.7 12417.7 9479.82 7946.31 6635.56 4867.22 4247.51 4046.22 3015.74 2958.32 2577.3 2161.3 2050.02 1797.2 1797.15 1763.36 2031 1734.96 1661.18 1851.44 1634.71 1615.49 1556.52 1355.08 1349.25 1306.84 1301.8 1293.03 1238.61 1209.03 1198.04 1187.71 1041.64 971.691 847.294 796.889 782.454 760.677 767.964 749.531 718.38 701.787 689.585 687.119 682.266 663.777 653.113 627.207 619.327 617.84 596.483 555.119 548.846 476.595 464.029 460.173 404.053 379.621 361.383 356.567
threshold=15.793355941772463 9.5545687675476092 19.426770210266117 417.80699157714849 3382.950317382813 -1.0875204205512998 406.26652526855474 3645.6477050781255 3071.385620117188 3535.070922851563 393.23966979980474 -1.2785666584968565 13.524108409881594 441.99205017089849 2725.4235839843755 -5.5598270893096915 -107.85346221923827 3445.1740722656255 395.98783874511724 11.664486408233644 2932.293579101563 436.79595947265631 3.0428459644317631 2.0277411937713627 445.08027648925787 2800.579711914063 5.0608222484588632 2856.6730957031255 383.20022583007818 3555.156616210938 3341.000366210938 2.0566319227218632 0.45652173459529882 366.37042236328131 413.71844482421881 0.05165375582873822 23.070856094360355 3577.7148437500005 4.4635665416717538 3507.947875976563 21.717578887939457 0.084119215607643141 -0.0081565161235630495 367.65245056152349 3753.4736328125005 2870.3627929687505 2.2441886663436894 3326.380493164063 339.82142639160162 -66.341049194335923 0.012614553794264795 24.185935020446781 3026.4621582031255 3586.155395507813 3106.4467773437505 7.4020743370056161 3700.819458007813 -66.341049194335923 17.925589561462406 3221.1970214843755 17.597169876098636 -0.25714088976383204
decision_type=2 2 2 2 2 2 2 2 2 2 2 2 2 2 2 2 2 2 2 2 2 2 2 2 2 2 2 2 2 2 2 2 2 2 2 2 2 2 2 2 2 2 2 2 2 2 2 2 2 2 2 2 2 2 2 2 2 2 2 2 2 2
left_child=1 3 9 8 20 14 28 12 10 11 33 48 22 30 -3 -16 36 18 43 50 -5 54 27 -15 39 -14 -9 -7 42 -25 -6 -23 38 52 -11 -24 -8 -21 -13 40 -18 -34 59 -10 -28 -12 -41 -20 -2 -30 -17 -51 -1 -32 -22 -27 -36 -44 -50 -4 -43 -47
right_child=2 5 6 4 13 7 16 26 17 34 45 32 25 23 15 19 24 -19 47 37 21 31 35 29 -26 55 44 -29 49 -31 53 -33 41 -35 56 -37 -38 -39 -40 46 -42 60 57 -45 -46 61 -48 -49 58 51 -52 -53 -54 -55 -56 -57 -58 -59 -60 -61 -62 -63
leaf_value=0.03247051168161972 -0.3311611284473151 0.10890221213666618 -0.43670975674056117 0.60337981695365461 0.32873511867580812 0.23455687617804213 -0.21172404037987247 -0.17541339077774903 -0.010433914885894595 -0.40090435165645238 0.47857196267195568 -0.027800507733202352 0.18395951258908408 0.4977576784995591 -0.25648033893935851 -0.025216853227212579 -0.27722195081858836 0.025335403119781316 0.25606648454484388 -0.067128973986043908 0.42299382445964723 0.40165137574580784 0.18654336397030744 0.32855438672294912 -0.24932925496906203 -0.030225647160772279 0.10121235184657298 0.0995339803209246 -0.41086961263026883 0.1718630280539522 0.16277978950542074 0.53768705971297426 -0.17695678160944175 0.24087512344778222 -0.20312157547156515 0.37929741422841501 -0.36713337469600626 -0.17498015127495067 0.17499927702788831 -0.60348067678353579 -0.4213192561760194 -0.005332017591955133 -0.54689647997839974 0.12085246519340043 -0.089803820639551668 0.24079119643981048 -0.43681547384224495 0.14696148782532001 -0.1426067747511934 -0.45993015927189546 0.096530606425391755 -0.57131186047416727 0.19746759553459031 0.042469345786724455 0.31860907359683394 0.088514680644891555 -0.31775603805343394 -0.66937020394369529 -0.26771554297190775 -0.55456519054788334 -0.12797903820674286 0.36327206822271996
leaf_weight=47 33 59 43 43 33 92 88 61 46 46 38 38 47 31 46 110 45 112 156 167 64 127 48 116 55 117 39 217 105 81 118 114 54 177 108 47 50 98 31 33 140 77 53 179 30 31 76 75 81 121 57 77 34 49 171 41 46 71 33 70 30 78
leaf_count=47 33 59 43 43 33 92 88 61 46 46 38 38 47 31 46 110 45 112 156 167 64 127 48 116 55 117 39 217 105 81 118 114 54 177 108 47 50 98 31 33 140 77 53 179 30 31 76 75 81 121 57 77 34 49 171 41 46 71 33 70 30 78
internal_value=-0.00220575 0.168391 -0.342113 0.260337 0.337681 0.0300265 -0.44088 0.0938408 0.18503 -0.166268 0.259271 -0.108344 0.129411 0.233051 -0.0577879 -0.0783874 -0.360396 0.132052 0.158245 -0.0593619 0.423898 0.407555 0.173368 0.296228 -0.396724 0.0427256 -0.0727398 0.139808 -0.513378 0.264263 0.160903 0.466209 -0.0411097 0.197319 -0.275331 0.282236 -0.268279 -0.107076 0.0633904 -0.424194 -0.386453 -0.0859257 -0.566591 0.0940057 0.0181087 0.367775 -0.487808 0.220735 -0.213421 -0.471574 0.0163526 -0.503527 0.101924 0.127544 0.347218 0.000604238 -0.237566 -0.61753 -0.179052 -0.51017 -0.0398344 0.328718
internal_weight=4800 3196 1604 1920 947 1276 1027 739 973 577 405 377 609 428 537 478 487 568 456 432 519 476 404 228 349 205 130 309 540 197 200 241 230 258 200 95 138 265 69 294 185 161 237 225 69 147 109 231 147 303 167 198 81 167 235 158 154 124 114 113 107 109
internal_count=4800 3196 1604 1920 947 1276 1027 739 973 577 405 377 609 428 537 478 487 568 456 432 519 476 404 228 349 205 130 309 540 197 200 241 230 258 200 95 138 265 69 294 185 161 237 225 69 147 109 231 147 303 167 198 81 167 235 158 154 124 114 113 107 109
is_linear=0
shrinkage=0.03


Tree=5
num_leaves=63
num_cat=0
split_feature=7 272 204 99 99 272 7 50 189 189 279 44 45 274 189 7 274 274 7 123 99 85 174 279 189 189 189 189 274 254 174 46 200 281 117 20 99 189 279 274 279 274 274 174 258 68 272 99 204 230 20 226 46 46 123 16 133 272 50 274 133 235
split_gain=294705 46145.6 20329.1 8558.54 7285.31 4329.07 4319.36 3634.05 3435.77 3288.15 2900.36 2586.07 2258.15 2125.55 2018.04 1855.5 1809.68 1650.3 1427.79 1293.6 1279.5 1274.06 1267.79 1246.66 1220.33 1181.71 1170.36 1032.09 1023.12 1015.55 983.136 981.379 977.631 965.375 907.746 891.159 906.173 859.475 839.662 763.95 737.183 725.006 719.638 715.436 691.835 734.894 687.74 647.066 644.992 631.209 626.354 601.722 592.946 582.728 577.307 569.154 533.107 504.1 500.948 483.215 463.385 449.836
threshold=16.4008903503418 71.786827087402358 19.215762138366703 -0.10732197016477583 0.23325175791978839 43.953214645385749 22.307512283325199 13.107505321502687 1.1449478864669802 -0.56064507365226735 99.460102081298842 3145.365356445313 2927.5051269531255 -14.852116107940672 -7.514509677886962 13.311484813690187 45.844984054565437 33.311754226684577 6.9916841983795175 0.18139722198247912 -0.18048388510942456 65.357688903808608 2842.3962402343755 91.91049957275392 7.3831093311309823 2.5830543041229252 -4.3529250621795645 -5.5851144790649405 -33.128347396850579 11.194324016571047 3507.157104492188 6.144930601119996 0.89595818519592296 0.019505888223648075 -0.1106186881661415 427.40859985351568 -1.7476201653480528 3.8766465187072758 -242.42134094238278 -26.650894165039059 176.3823165893555 -2.0046466588973995 15.471683979034426 3605.5405273437505 134.07812500000003 3796.403198242188 83.146247863769545 0.84520336985588085 12.195120811462404 1.7823123931884768 418.58703613281256 1.9341583847999575 25.173077583312992 7.8614051342010507 0.059192555025219924 413.71844482421881 2.7827548980712895 92.410419464111342 7.8614051342010507 20.305241584777836 3.0724787712097172 7.2561216354370126
decision_type=2 2 2 2 2 2 2 2 2 2 2 2 2 2 2 2 2 2 2 2 2 2 2 2 2 2 2 2 2 2 2 2 2 2 2 2 2 2 2 2 2 2 2 2 2 2 2 2 2 2 2 2 2 2 2 2 2 2 2 2 2 2
left_child=1 3 12 9 8 17 26 11 15 18 16 23 40 32 54 28 27 25 38 60 -16 -19 56 29 42 51 -4 -7 -3 -6 -30 35 -10 -23 49 -11 -37 46 -1 -33 -2 -12 -14 57 45 -20 -13 -36 -34 -28 -40 -5 -22 -43 -8 -44 -9 -15 -41 -39 -17 -18
right_child=2 4 6 5 7 10 14 22 13 31 41 37 24 43 20 19 61 21 44 -21 52 33 -24 -25 -26 -27 34 -29 30 -31 -32 39 48 -35 47 36 -38 59 50 58 -42 53 55 -45 -46 -47 -48 -49 -50 -51 -52 -53 -54 -55 -56 -57 -58 -59 -60 -61 -62 -63
leaf_value=0.39251433440975042 -0.014990652623076887 -0.018917330821681122 -0.25992467110202677 0.3566231855868735 0.26383562294302609 0.3593217465759409 -0.41245434511029488 0.036121258324533279 -0.28992003341119216 0.11336225964689108 0.083967426515293625 0.24107031029193138 -0.22254941004575701 0.054757804980475784 -0.54577683293939105 -0.13224534549697081 0.36038458243708743 0.33004745758552201 0.17722123276915258 0.12291790736306135 -0.4243088373612493 0.46685315568638464 -0.016469236681003131 0.12328506986206433 -0.33410763833833773 0.27382849987821561 -0.56397290005944545 0.24696870098569357 0.17298942878533374 0.47078685988950569 0.022519871103734782 0.031622623908204993 -0.042473358162933177 0.68953566129817512 -0.38044124901799614 0.12801870622196976 0.30050834442439833 -0.075331304597509641 0.18209974670384177 0.17953291867812177 -0.18549207844630697 0.2535595471000921 -0.18736309423020375 -0.14804702845470638 0.11358732573377196 0.35142659552743499 0.08250769011003066 -0.26549305501737092 -0.19816729101696035 -0.39148958957346724 0.29581262662164132 0.46827784981292864 -0.52922044878106977 0.14063507399443381 -0.28655030378737162 -0.036007110564980536 0.18901245217561224 -0.056144135682269079 0.073317252784838041 0.093278990041377935 -0.018736422367525193 0.51523279684737422
leaf_weight=57 86 70 120 128 71 107 87 36 55 97 57 43 166 65 229 89 32 33 70 31 215 46 188 37 62 114 31 243 106 31 62 105 42 30 115 44 74 31 63 96 31 102 48 42 79 32 58 74 56 55 148 69 66 70 55 42 48 85 69 30 51 40
leaf_count=57 86 70 120 128 71 107 87 36 55 97 57 43 166 65 229 89 32 33 70 31 215 46 188 37 62 114 31 243 106 31 62 105 42 30 115 44 74 31 63 96 31 102 48 42 79 32 58 74 56 55 148 69 66 70 55 42 48 85 69 30 51 40
internal_value=0.00639489 0.162938 -0.345548 0.253761 0.0256999 0.311656 -0.417169 0.106326 -0.0355735 0.187344 0.263109 0.178129 -0.173101 -0.105288 -0.464673 0.0232359 0.309784 0.386817 0.245862 -0.0521201 -0.492636 0.487695 0.0268196 0.273041 -0.214557 0.351306 -0.338652 0.281418 0.07739 0.327161 0.117523 0.133124 -0.188673 0.555584 -0.372888 0.180971 0.236378 0.096556 0.289888 0.0949607 -0.0603117 0.176986 -0.185473 -0.0387606 0.180534 0.232194 0.150216 -0.335615 -0.131583 -0.454281 0.261977 0.395964 -0.44914 0.207728 -0.363946 -0.116882 0.123644 -0.00806218 0.135205 0.00755964 -0.09096 0.447048
internal_weight=4814 3332 1482 2005 1327 1071 1047 573 754 934 651 301 435 345 652 409 422 420 449 171 510 109 272 139 318 311 395 350 238 102 168 485 153 76 275 215 118 162 268 270 117 229 256 192 181 102 101 189 98 86 211 197 281 172 142 90 84 150 165 61 140 72
internal_count=4814 3332 1482 2005 1327 1071 1047 573 754 934 651 301 435 345 652 409 422 420 449 171 510 109 272 139 318 311 395 350 238 102 168 485 153 76 275 215 118 162 268 270 117 229 256 192 181 102 101 189 98 86 211 197 281 172 142 90 84 150 165 61 140 72
is_linear=0
shrinkage=0.03


Tree=6
num_leaves=63
num_cat=0
split_feature=192 272 204 93 93 189 3 46 50 183 177 43 189 99 177 204 99 272 99 183 135 230 189 177 272 35 99 272 114 3 183 120 274 93 249 93 90 12 44 274 274 174 206 230 99 93 183 237 93 93 272 43 189 93 20 195 183 46 99 183 183 126
split_gain=276097 34469.9 30139.6 8327.21 6199.16 4398.99 4354.88 3727.16 3196.22 2722.94 2577.78 2564.53 2477.49 2071.42 2014.67 1819.27 1603.8 1576.39 1556.05 1455.08 1449.12 1428.38 1309.53 1265.61 1203.64 1156.8 1151.48 1131.42 1109.22 1181.73 1079.69 1060.71 1054.28 1042.69 1022.02 973.693 971.495 968.28 964.258 960.798 924.899 898.013 876.831 723.851 694.279 682.659 596.163 591.861 560.707 557.524 545.781 537.507 535.483 529.874 486.125 468.077 466.02 454.037 449.461 442.492 423.579 411.721
threshold=15.431719779968263 71.786827087402358 19.215762138366703 0.83756250143051159 -1.6193459033966062 -6.706066131591796 3.4803352355957036 5.4983258247375497 13.107505321502687 1.0000000180025095e-35 19.63878154754639 3200.102172851563 1.3600770235061648 -0.032085156068205826 -9.1152839660644513 17.728084564208988 -0.18048388510942456 93.368038177490249 -1.3313645124435423 -5.3695533275604239 0.028507968410849575 1.3733922243118288 5.6518638134002694 33.037424087524421 48.047649383544929 2.7627245187759404 -0.35569681227207178 161.85034179687503 38.966815948486335 4.5257525444030771 -1.3583096265792844 6.0299613475799569 34.563961029052741 -3.0715693235397334 0.1003345660865307 0.78555306792259227 408.50440979003912 66250.871093750015 2859.778442382813 48.721067428588874 22.100886344909672 3516.248413085938 1.2466337680816653 1.7904901504516604 0.27792373299598699 2.2182749509811406 -6.8470392227172843 0.3278686404228211 -3.4732866287231441 3.2897555828094487 127.37940216064455 3659.282348632813 -2.6320321559906001 -0.52634212374687184 407.06929016113287 -0.15010295063257215 16.53048133850098 24.735447883605961 0.507765293121338 17.895559310913089 -11.33008289337158 6.0784049034118661
decision_type=2 2 2 2 2 2 2 2 2 2 2 2 2 2 2 2 2 2 2 2 2 2 2 2 2 2 2 2 2 2 2 2 2 2 2 2 2 2 2 2 2 2 2 2 2 2 2 2 2 2 2 2 2 2 2 2 2 2 2 2 2 2
left_child=1 3 9 5 10 18 30 20 11 15 17 16 21 22 36 28 54 42 -1 52 47 -9 33 32 59 -18 -11 43 29 -2 57 -20 46 -7 -33 -30 60 -12 -28 -23 -22 44 -3 -16 -14 -29 -10 -5 -32 -21 -40 -19 -13 -17 -6 -50 -26 -4 -45 -15 -8 -24
right_child=2 4 6 7 8 13 14 12 23 26 37 19 41 24 27 53 25 51 31 49 40 39 61 -25 56 -27 38 45 35 -31 48 34 -34 -35 -36 -37 -38 -39 50 -41 -42 -43 -44 58 -46 -47 -48 -49 55 -51 -52 -53 -54 -55 -56 -57 -58 -59 -60 -61 -62 -63
leaf_value=0.18677656759659755 -0.023891757098729774 0.002656928073521826 -0.38832064433003338 0.34598958458274154 0.043240231962527256 0.094736905813586514 -0.29477640895791579 0.13717750640010515 0.075794885392758166 -0.27252092096608937 -0.12315076161585162 0.20406862126242731 0.16130923518999959 0.29637267770418857 -0.43837146048909759 -0.27462412976861889 0.21648672321355514 -0.050403403858417406 0.28803335172824879 -0.028236789150778829 0.42426511089901442 0.32744238817557753 0.04008995694128599 -0.11695804984783412 0.18743668592092375 0.41343446263900163 -0.053125707676406571 -0.48904895189200737 -0.16655383118931816 0.19514347456816422 -0.62785358433833194 0.30937540458094687 0.1541838468802485 0.19877974344305174 0.52754418381412693 0.02190837566308149 -0.24102687746079299 -0.31318980780653549 -0.15387014705143617 0.46095121478112999 0.654929300962655 0.099359647703147883 0.17086240547449408 -0.35600208098083591 0.2787403167884942 -0.36195481003287 -0.031271421291753025 0.49653607680552025 -0.42815952132454477 0.11043620698962393 -0.28504160259621103 -0.19539418646108322 0.065307740713231754 -0.1223141659606084 0.18866026003339773 -0.53070054300564606 0.055189949577531934 -0.49167253391119881 -0.2359762097617327 0.18117835984689981 -0.41125191635555686 0.12843301449830716
leaf_weight=68 84 76 121 124 53 129 55 30 73 126 70 65 69 158 51 40 118 82 96 111 31 240 133 57 123 35 58 133 70 30 39 34 56 267 47 38 151 37 80 62 34 52 44 63 136 56 130 30 61 34 45 32 41 43 34 142 30 60 53 38 62 74
leaf_count=68 84 76 121 124 53 129 55 30 73 126 70 65 69 158 51 40 118 82 96 111 31 240 133 57 123 35 58 133 70 30 39 34 56 267 47 38 151 37 80 62 34 52 44 63 136 56 130 30 61 34 45 32 41 43 34 142 30 60 53 38 62 74
internal_value=0.00620492 0.171105 -0.306807 0.24616 0.040008 0.195891 -0.404667 0.320592 0.0853232 -0.139891 -0.0672186 0.133213 0.281188 0.166676 -0.354132 -0.0762483 0.203319 -0.0114056 0.309284 0.0661122 0.42638 0.335378 0.132957 0.0108845 0.224873 0.2618 -0.202656 -0.401025 -0.0313966 0.0338433 -0.479105 0.3562 0.0390656 0.164927 0.436499 -0.100256 -0.291705 -0.189124 -0.154413 0.355005 0.545787 0.211068 0.0644482 -0.343512 0.239327 -0.451619 0.00723385 0.375639 -0.520976 0.00431266 -0.201306 -0.0912644 0.150537 -0.195995 0.100257 -0.500128 0.161579 -0.42285 -0.301439 0.274158 -0.356823 0.0717328
internal_weight=4814 3153 1661 2005 1148 1197 1047 808 807 614 341 491 589 952 624 305 240 234 245 251 219 332 603 316 349 153 309 356 222 114 423 177 259 396 81 108 268 107 183 302 65 257 120 167 205 189 203 154 242 145 125 114 106 83 87 203 153 181 116 196 117 207
internal_count=4814 3153 1661 2005 1148 1197 1047 808 807 614 341 491 589 952 624 305 240 234 245 251 219 332 603 316 349 153 309 356 222 114 423 177 259 396 81 108 268 107 183 302 65 257 120 167 205 189 203 154 242 145 125 114 106 83 87 203 153 181 116 196 117 207
is_linear=0
shrinkage=0.03


Tree=7
num_leaves=63
num_cat=0
split_feature=7 272 7 1 6 6 1 1 93 6 1 6 6 6 7 1 1 192 6 6 1 1 1 1 86 1 177 1 6 7 46 6 260 180 1 7 7 6 204 93 119 6 1 177 1 204 272 99 6 114 6 6 6 186 6 189 1 1 1 276 6 58
split_gain=261156 40801.2 17936 10960.6 10578.3 6646.31 5514.96 5440.91 4835.65 4791.79 4188.56 3525.61 3202.09 2920.16 2634.29 2191.43 1856.99 1719.29 1670.82 1594.66 1528.26 1487.15 1309.01 1262.55 1221.39 1199.42 1198.36 1093.94 1091.19 1089.33 1012.45 908.257 870.436 870.309 869.481 857.049 855.634 837.647 801.304 787.77 741.322 734.326 726.186 696.233 683.666 681.219 656.462 543.214 498.274 486.268 483.962 482.001 442.101 427.462 427.284 424.398 421.976 358.99 346.822 345.217 317.563 312.078
threshold=16.4008903503418 71.786827087402358 21.024137496948246 393.64144897460943 3382.950317382813 2819.7822265625005 436.79595947265631 386.24575805664068 -2.3142131567001338 3357.8354492187505 421.91058349609381 3663.761840820313 3580.656372070313 3136.5520019531255 12.305067062377931 433.03855895996099 417.08311462402349 13.630966663360597 3370.1899414062505 3132.052368164063 368.43751525878912 372.94250488281256 448.70300292968756 361.76211547851568 25.847905158996586 450.27912902832037 19.066311836242679 341.87452697753912 3535.070922851563 23.799869537353519 25.173077583312992 3505.0720214843755 10.422892093658449 3147.288452148438 407.39892578125006 12.850511550903322 12.850511550903322 2926.1328125000005 19.812647819519047 -4.3885626792907706 0.41304346919059759 2893.467895507813 422.59852600097662 -38.840114593505852 372.35054016113287 14.447820186614992 49.633022308349616 -0.40327486395835871 2860.703491210938 39.134370803833015 3128.471069335938 3577.7148437500005 3406.7387695312505 3528.164184570313 2754.874633789063 7.3831093311309823 367.65245056152349 377.45816040039068 401.90690612792974 -0.16692338138818738 3718.161010742188 23.490486145019535
decision_type=2 2 2 2 2 2 2 2 2 2 2 2 2 2 2 2 2 2 2 2 2 2 2 2 2 2 2 2 2 2 2 2 2 2 2 2 2 2 2 2 2 2 2 2 2 2 2 2 2 2 2 2 2 2 2 2 2 2 2 2 2 2
left_child=1 3 9 19 6 7 13 23 26 27 18 14 15 41 20 46 51 -9 30 21 -10 -1 60 36 32 -16 35 -2 43 58 44 49 -8 -26 -15 -7 -3 57 55 -28 -17 -5 -39 -12 -4 59 -6 -37 -23 -18 -32 -11 56 -24 -25 -33 -21 -29 -20 -13 -14 -58
right_child=2 5 10 4 12 8 24 17 11 16 28 45 22 34 25 40 31 -19 29 52 -22 48 53 54 33 -27 39 37 -30 -31 50 38 -34 -35 -36 47 -38 42 -40 -41 -42 -43 -44 -45 -46 -47 -48 -49 -50 -51 -52 -53 -54 -55 -56 -57 61 -59 -60 -61 -62 -63
leaf_value=0.078379680568811727 -0.2565054654921749 0.10639504404397132 -0.47446670557919846 0.44316806783444146 0.20432536570516571 0.0022762013597533042 0.44545428886394534 0.45459061796719069 -0.067255759727745112 -0.3037870289098577 -0.14674007105012224 -0.12963066809331367 0.047361853831183742 0.16548042399858734 -0.029435601383237101 0.42674347128392698 -0.1970981377477099 0.18036486330379312 -0.51470197533083017 -0.02894361625147019 0.14684185531306368 0.31012957379573908 0.25600018676529579 0.19378030114127814 0.6413990354162501 0.10336039456239544 -0.3395987779634056 -0.045086573632956789 -0.44349210785477966 -0.60938126455516795 -0.40591946327124934 -0.18864714485987891 0.27186121185330575 0.47151882288524338 0.26769844770645157 -0.21136551297773978 -0.061710169782281402 -0.18101719651839016 -0.38084497658499716 -0.14983219106887213 0.27042402040080538 0.33571105862468398 -0.018929614400923101 -0.29763277832459739 -0.36101097650862879 -0.22458045423526179 0.091923313708811752 -0.060685634635518904 0.1866904267714373 -0.050328948554580304 -0.5467809211396234 -0.41351704983001059 -0.044599153375076812 0.10709957752472316 0.065671117247089628 -0.30166454673643178 0.052432512039413105 0.082152847009670002 -0.42450549969630963 -0.021206212749065805 -0.063497348779219531 0.15287161352860223
leaf_weight=126 31 43 63 78 105 64 75 53 34 95 35 51 92 108 283 33 47 34 87 31 251 38 35 62 38 78 32 48 39 79 36 103 41 108 251 47 74 66 36 52 171 234 40 136 222 36 85 40 137 36 66 61 39 35 38 43 65 34 79 55 31 49
leaf_count=126 31 43 63 78 105 64 75 53 34 95 35 51 92 108 283 33 47 34 87 31 251 38 35 62 38 78 32 48 39 79 36 103 41 108 251 47 74 66 36 52 171 234 40 136 222 36 85 40 137 36 66 61 39 35 38 43 65 34 79 55 31 49
internal_value=0.00601903 0.153383 -0.325286 0.238785 0.278408 0.0243361 0.341191 0.147474 -0.0122641 -0.205518 -0.416283 0.0233547 0.178571 0.295512 0.0531107 0.22761 -0.264721 0.347786 -0.454903 0.114567 0.121275 0.157094 0.0783794 0.0670278 0.458011 -0.000713852 -0.131673 -0.0916243 -0.299881 -0.516593 -0.415718 -0.21619 0.384411 0.516164 0.237011 -0.0810252 8.45672e-05 -0.0642986 -0.253738 -0.222478 0.295922 0.362718 -0.119956 -0.26687 -0.386259 -0.111935 0.154131 -0.142271 0.213673 -0.133612 -0.497541 -0.346951 0.0449342 0.181852 0.145243 -0.222137 0.0690504 0.0076705 -0.472077 -0.073474 0.0193685 0.0957261
internal_weight=4814 3332 1482 2005 1520 1327 933 304 1023 640 842 788 587 671 646 394 421 87 632 485 285 301 193 217 262 361 235 219 210 245 387 265 116 146 359 151 117 188 182 84 204 312 106 171 285 142 190 87 175 83 102 156 184 70 100 146 145 82 166 106 123 114
internal_count=4814 3332 1482 2005 1520 1327 933 304 1023 640 842 788 587 671 646 394 421 87 632 485 285 301 193 217 262 361 235 219 210 245 387 265 116 146 359 151 117 188 182 84 204 312 106 171 285 142 190 87 175 83 102 156 184 70 100 146 145 82 166 106 123 114
is_linear=0
shrinkage=0.03


Tree=8
num_leaves=63
num_cat=0
split_feature=7 272 204 1 174 99 1 177 1 180 7 272 174 177 44 1 177 279 87 180 93 177 1 7 51 66 174 55 1 1 1 177 1 123 268 46 20 183 7 93 87 177 177 1 177 93 177 46 177 183 177 133 183 281 279 279 1 1 1 205 183 1
split_gain=245742 38393 16942.9 10381.7 6636.43 6321.15 5287.35 3427.17 3098.42 3430.41 3089.68 2420.97 2392.98 1860.4 1823.34 2001.83 1813.99 1800.27 1704.49 1605.18 1587.29 1457.65 1397.66 1388.48 1362.58 1833.64 1289.49 1280.35 1218.52 1215.72 1159.26 1078.55 1053.76 935.64 935.285 923.163 840.111 831.903 773.952 769.405 760.726 727.526 719.727 634.039 604.506 601.824 588.829 603.2 526.407 510.986 497.738 494.708 493.119 455.162 455.02 453.515 381.086 371.235 371.206 370.073 367.705 347.377
threshold=16.4008903503418 71.786827087402358 19.215762138366703 418.16844177246099 3342.212036132813 0.23325175791978839 421.91058349609381 19.63878154754639 372.94250488281256 3341.000366210938 13.210198879241945 93.368038177490249 3505.4345703125005 -11.549887180328367 3145.365356445313 386.84835815429693 -1.3557307720184324 72.065990447998061 1.8644540905952456 2876.8896484375005 -3.9667772054672237 36.616266250610359 361.76211547851568 23.799869537353519 7.1728291511535653 63442.857421875007 2842.3962402343755 7.2834727764129648 450.94050598144537 462.42471313476568 392.06559753417974 20.062321662902836 474.73338317871099 0.062596343457698836 1.0000000180025095e-35 23.320358276367191 400.22337341308599 -23.920302391052243 8.5719161033630389 -1.9958457946777342 -4.3860237598419181 -20.492888450622555 -15.857493400573729 391.53060913085943 28.821033477783207 2.8265291452407841 -38.840114593505852 21.439557075500492 -38.192443847656243 -5.3695533275604239 -8.8060030937194806 2.7827548980712895 -1.1014664769172666 0.0061356951482594022 148.7030944824219 99.460102081298842 355.20466613769537 388.76460266113287 445.76710510253912 3.8254734277725224 5.3895258903503427 448.23918151855474
decision_type=2 2 2 2 2 2 2 2 2 2 2 2 2 2 2 2 2 2 2 2 2 2 2 2 2 2 2 2 2 2 2 2 2 2 2 2 2 2 2 2 2 2 2 2 2 2 2 2 2 2 2 2 2 2 2 2 2 2 2 2 2 2
left_child=1 3 19 8 17 7 13 11 54 16 14 37 29 35 15 -7 30 24 39 22 -9 46 -2 55 25 -5 51 -17 48 33 -10 49 38 -6 -22 -4 -19 -3 -14 -13 -39 -26 -20 -18 -11 61 -8 -48 -21 -16 -30 -12 -25 -38 -1 57 -36 -15 -49 -54 -57 -28
right_child=2 5 6 4 12 10 21 20 9 44 26 18 32 23 31 27 43 36 42 28 34 -23 -24 52 41 -27 45 -29 50 -31 -32 -33 -34 -35 56 -37 53 40 -40 -41 -42 -43 -44 -45 -46 -47 47 58 -50 -51 -52 -53 59 -55 -56 60 -58 -59 -60 -61 -62 -63
leaf_value=0.080254035270536692 -0.18229157942503235 0.22071414676509868 -0.30773017262526431 0.73439598691819907 0.21399160881288087 0.10975288225017768 -0.13985803668402719 -0.30512482386263429 0.19972090575665502 0.10883327093240158 0.040934445292168241 -0.17024300974813253 0.17830269514032232 -0.44443964927591739 0.19848787615208538 0.24617005816559251 0.11491052801500712 0.22045829105293685 0.17614864372378475 -0.13093020624576365 -0.1999751124298286 -0.41414831393427076 0.011620788508700026 -0.45420615929823649 0.47795736841950442 0.40498903167582001 -0.08663035549529384 0.48911414486095539 -0.0047246814494586583 0.40453461486852299 0.31745578679271658 -0.034397480924832011 0.32023277263308675 0.32565672096991738 -0.13359185719425787 -0.4168643093009165 0.42511192444664592 -0.018292710482568909 0.053129815123824461 -0.05030497519210244 0.097006039983961886 0.35531805990511439 -0.011498890842403998 0.20266891093194864 -0.012375957461709747 0.062160844356591034 -0.20121568163628234 -0.34411182243491811 -0.2514385026519983 0.067494057637111401 -0.16478363244177727 0.18600993383451209 -0.48928416271598962 0.30090620754851183 -0.027508250713162506 -0.38780258250606559 -0.020298762178817976 -0.34450677526364548 -0.22969594538669144 -0.60409769632186594 -0.49708305923864848 0.019507411220981888
leaf_weight=132 59 31 141 30 179 61 42 39 123 142 38 81 112 56 63 54 115 57 32 40 54 55 77 61 72 32 90 31 34 61 198 43 30 110 37 143 55 81 74 119 141 118 43 212 50 58 83 81 189 47 36 48 44 55 48 45 96 94 39 76 87 40
leaf_count=132 59 31 141 30 179 61 42 39 123 142 38 81 112 56 63 54 115 57 32 40 54 55 77 61 72 32 90 31 34 61 198 43 30 110 37 143 55 81 74 119 141 118 43 212 50 58 83 81 189 47 36 48 44 55 48 45 96 94 39 76 87 40
internal_value=0.00583746 0.148786 -0.315542 0.231629 0.301105 0.0236058 -0.380927 -0.0334691 0.164512 0.188716 0.0987075 0.00837524 0.234016 -0.423687 0.16538 0.241213 0.221717 0.391646 -0.0532252 -0.15811 -0.131203 -0.274339 -0.072553 -0.460929 0.442437 0.565354 0.0259069 0.335279 -0.196978 0.282501 0.272428 0.0928872 0.155343 0.256602 -0.0947708 -0.362819 0.314768 0.0753387 0.128574 -0.0989557 0.0549348 0.402035 0.0686521 0.17186 0.0772627 -0.0181053 -0.242785 -0.263986 -0.230468 0.142657 -0.0872012 0.122064 -0.526269 0.363366 0.0515015 -0.418809 -0.0519156 -0.382106 -0.307174 -0.562467 -0.460173 -0.0539596
internal_weight=4814 3332 1482 2005 985 1327 1047 754 1020 840 573 528 566 747 299 146 648 419 275 435 226 300 136 463 252 62 274 85 299 350 321 153 216 289 187 284 167 253 186 200 222 190 75 327 192 188 245 203 229 110 70 86 181 110 180 282 133 150 120 120 132 130
internal_count=4814 3332 1482 2005 985 1327 1047 754 1020 840 573 528 566 747 299 146 648 419 275 435 226 300 136 463 252 62 274 85 299 350 321 153 216 289 187 284 167 253 186 200 222 190 75 327 192 188 245 203 229 110 70 86 181 110 180 282 133 150 120 120 132 130
is_linear=0
shrinkage=0.03


Tree=9
num_leaves=63
num_cat=0
split_feature=7 46 204 93 93 7 183 7 7 177 268 7 183 45 231 177 124 183 177 93 230 2 274 7 274 177 274 93 39 93 183 274 249 19 93 19 66 19 204 274 75 183 93 177 274 46 177 177 180 19 274 195 17 93 16 44 114 133 93 102 7 18
split_gain=231238 36103.4 15943.1 7454.2 5450.82 4182.56 3957.63 3520.21 2663.8 2646.93 2320.58 2254.49 1815.06 1814.03 1712.12 1630.62 1507.07 1505.63 1275.78 1257.18 1247.71 1115.37 1104.94 1096.06 995.267 986.129 967.814 916.698 931.007 876.076 873.446 877.144 872.849 794.112 782.244 780.769 770.101 750.513 728.362 713.521 698.301 676.05 652.243 639.341 638.882 625.975 608.3 604.628 595.557 594.026 546.924 541.423 540.398 537.902 530.07 516.144 477.61 456.861 437.634 401.618 387.883 380.328
threshold=16.4008903503418 10.442085742950441 19.215762138366703 0.74976173043251049 0.81200411915779125 7.4320738315582284 -11.33008289337158 22.307512283325199 6.7142047882080087 32.570539474487312 0.68301269412040722 12.850511550903322 3.8943461179733281 2927.5051269531255 0.72259175777435314 -5.9735424518585196 0.54353769123554241 -6.4715571403503409 20.062321662902836 -2.0280835628509517 1.3352199196815493 34.190526962280281 19.549502372741703 9.4090962409973162 -7.015936851501464 -26.474380493164059 -13.868320941925047 -2.2298209667205806 2.6515409946441655 -4.1509306430816642 15.311844348907472 15.471683979034426 -1.5423262119293211 403.53428649902349 3.2897555828094487 413.71633911132818 64168.279296875007 409.15019226074224 13.674843788146974 32.701276779174812 327.41099548339849 5.1656553745269784 -0.34391991794109339 1.0000000180025095e-35 3.64081883430481 14.299778938293459 25.847558021545414 -40.110540390014641 3545.995239257813 429.05854797363287 -12.83636951446533 -0.18331962823867795 417.52323913574224 2.1761270761489873 413.71844482421881 3275.913208007813 32.726840972900398 2.9547524452209477 1.5237483978271487 31.73519325256348 18.830025672912601 414.56925964355474
decision_type=2 2 2 2 2 2 2 2 2 2 2 2 2 2 2 2 2 2 2 2 2 2 2 2 2 2 2 2 2 2 2 2 2 2 2 2 2 2 2 2 2 2 2 2 2 2 2 2 2 2 2 2 2 2 2 2 2 2 2 2 2 2
left_child=1 3 13 6 9 14 16 15 19 11 17 24 26 41 25 50 -1 36 20 49 -7 -12 48 43 -3 44 -9 57 -29 -18 31 60 -11 -27 -22 -16 38 -21 -6 55 42 -2 -17 -10 -5 56 -25 -28 -19 -8 -4 -31 -26 -20 -33 59 -34 -13 -49 -14 -15 -24
right_child=2 4 7 5 10 18 8 12 23 32 21 27 39 30 35 40 29 22 53 37 34 -23 61 46 52 33 47 28 -30 51 -32 54 45 -35 -36 -37 -38 -39 -40 -41 -42 -43 -44 -45 -46 -47 -48 58 -50 -51 -52 -53 -54 -55 -56 -57 -58 -59 -60 -61 -62 -63
leaf_value=0.40691907982288572 0.0016844867812730027 -0.0045553328426469241 -0.29318036431864319 0.29249603567097704 0.32199200495136926 0.0623373276661255 0.063373219334041553 -0.43816480656237572 0.15548642636271151 -0.27933600901914735 0.15048722511203119 -0.1697102519003591 -0.52984918123581015 -0.17124313613343523 0.38873445433287707 -0.38191297210526093 0.12179301344516065 0.019657356890054468 0.027054002593903642 0.15953667651113679 0.22243121733819557 0.36959637962769121 0.13489271789350213 0.047199570321211658 0.16266739857665607 0.25253374881248292 -0.25533258254856767 -0.061060731125682652 0.08630297614692968 0.32423868942354733 -0.27641376094871695 -0.15317409741352991 0.029400475350690708 0.34176336452427752 0.34821068410866612 0.58859703127331897 0.061594140444296668 0.26381841970295711 0.12589066332489474 -0.37598652972932733 -0.44037821924623793 -0.14849104701056898 -0.26666570202260464 0.072751573974257439 0.44883388659413298 -0.21407883671104397 -0.11549586584797729 -0.40242046859915759 -0.10769798639835576 0.16932123946810457 -0.17741577204375614 0.22386576221097199 0.03829073950934319 0.16864554302719642 0.00044410579632527713 -0.56922972565705554 -0.12641964737081179 -0.056587677917657876 -0.31030864318117374 -0.42192841769125489 -0.27428279387975679 0.0301123044799066
leaf_weight=54 75 124 61 37 30 31 74 131 157 37 61 78 55 109 46 82 52 67 41 94 126 32 61 66 80 211 63 141 53 76 80 43 31 160 70 30 57 188 40 55 57 42 100 182 70 35 30 113 65 135 95 139 52 59 38 68 41 55 84 83 48 64
leaf_count=54 75 124 61 37 30 31 74 131 157 37 61 78 55 109 46 82 52 67 41 94 126 32 61 66 80 211 63 141 53 76 80 43 31 160 70 30 57 188 40 55 57 42 100 182 70 35 30 113 65 135 95 139 52 59 38 68 41 55 84 83 48 64
internal_value=0.00566251 0.144329 -0.306089 0.218606 0.0130387 0.285421 0.17138 -0.369515 0.139878 -0.0386619 0.0918341 -0.0101973 -0.412398 -0.153372 0.335668 -0.298637 0.262171 0.0592273 0.200207 0.187776 0.239555 0.226228 0.0174368 0.0857767 0.0564595 0.314474 -0.371196 -0.0623917 -0.0207624 0.232743 -0.190529 -0.161544 -0.153796 0.291105 0.267522 0.468337 0.143692 0.229137 0.210316 -0.473946 -0.347971 -0.0522798 -0.318788 0.111112 0.395125 -0.110137 -0.00367881 -0.337286 -0.0430668 0.131871 -0.222861 0.259495 0.113759 0.110708 -0.0811576 -0.499891 -0.0593411 -0.12303 -0.363337 -0.465315 -0.202919 0.0813361
internal_weight=4814 3332 1482 2128 1204 881 1247 1047 926 727 477 583 652 435 554 395 321 384 327 491 227 93 257 435 256 478 391 327 194 267 318 238 144 371 196 76 127 282 70 261 239 117 182 339 107 107 96 260 132 209 156 215 132 100 81 206 72 133 197 138 157 125
internal_count=4814 3332 1482 2128 1204 881 1247 1047 926 727 477 583 652 435 554 395 321 384 327 491 227 93 257 435 256 478 391 327 194 267 318 238 144 371 196 76 127 282 70 261 239 117 182 339 107 107 96 260 132 209 156 215 132 100 81 206 72 133 197 138 157 125
is_linear=0
shrinkage=0.03


Tree=10
num_leaves=63
num_cat=0
split_feature=46 50 7 1 6 87 1 6 6 6 1 1 1 1 1 198 1 3 6 183 246 7 6 6 64 6 192 135 1 6 180 18 1 3 1 6 268 6 6 1 6 6 1 99 1 6 6 7 278 1 6 6 6 240 37 11 6 10 279 103 33 162
split_gain=222461 29731.7 25032 10388 6248.61 5772.85 5011.81 4057.86 3685.6 3263.93 3158.92 2888.67 2413.46 2382.18 1688.21 1587.08 1575.6 1572.86 1536.18 1469.87 1409.39 1370.24 1559.07 1279.42 1058.67 1055.2 1036.93 1000.89 961.868 1112.48 877.861 874.689 858.349 853.724 840.725 781.109 744.498 704.431 665.176 659.461 653.029 650.398 644.789 639.392 634.526 631.546 611.889 607.845 606.119 603.471 578.078 533.929 529.889 858.591 508.906 490.574 435.711 433.67 410.662 395.207 384.912 363.416
threshold=14.903661251068117 19.118728637695316 8.5719161033630389 419.19374084472662 3377.533569335938 -1.0875204205512998 406.26652526855474 3500.610473632813 3225.786987304688 3433.350463867188 393.23966979980474 363.49530029296881 385.84294128417974 428.04515075683599 441.99205017089849 11.838514328002931 436.40115356445318 5.7579903602600107 3005.904418945313 -1.5193192362785337 130.07118225097659 24.18962383270264 3302.657836914063 3136.5520019531255 143.77675628662112 2762.627319335938 11.503315925598146 0.027020277455449108 359.45861816406256 3404.185424804688 3362.6411132812505 388.69902038574224 448.23918151855474 5.4829957485198983 367.10510253906256 2866.166381835938 -0.68301269412040699 3566.0178222656255 2870.3627929687505 420.28329467773443 3164.010131835938 2881.5920410156255 449.16644287109381 -0.46073102951049799 403.56492614746099 3640.6093750000005 3221.1970214843755 21.563447952270511 -0.21965462714433667 397.72499084472662 2937.185668945313 3684.7036132812505 3640.6093750000005 24.176526069641117 2.1793762445449834 62902.687500000007 3209.2480468750005 137.96852111816409 -224.28976440429685 8.9443349838256854 2.0577609539031987 2.6745213270187382
decision_type=2 2 2 2 2 2 2 2 2 2 2 2 2 2 2 2 2 2 2 2 2 2 2 2 2 2 2 2 2 2 2 2 2 2 2 2 2 2 2 2 2 2 2 2 2 2 2 2 2 2 2 2 2 2 2 2 2 2 2 2 2 2
left_child=2 9 3 8 16 15 21 12 10 11 34 35 50 44 30 25 23 32 31 39 -16 46 57 55 40 -4 -20 43 -27 -30 -6 -14 -9 51 -1 -2 -13 49 -36 -8 -18 -12 54 -17 -11 -22 -3 -48 -32 -10 -7 -15 53 -19 -21 -5 -41 -23 -38 -45 -43 -56
right_child=1 6 5 4 14 7 19 17 37 13 41 36 18 33 20 27 24 52 26 42 45 22 -24 -25 -26 28 -28 -29 29 -31 48 -33 -34 -35 38 -37 58 -39 -40 56 -42 60 -44 59 -46 -47 47 -49 -50 -51 -52 -53 -54 -55 61 -57 -58 -59 -60 -61 -62 -63
leaf_value=0.055570721469447498 -0.10110050408932868 -0.3141373964759227 0.19441734699861796 0.48583049857984523 0.2835173849737529 0.1033874107113068 -0.30621936206944639 -0.10021563524742105 0.05385834784121242 -0.35559626730885391 0.40288199024847665 -0.10225067037911642 0.23890902606182451 -0.10738692643303309 0.46225721913714735 -0.14980390655966744 0.48438229349357992 0.057693409279132572 0.20779172697545498 -0.47184539937553516 0.26808677072939235 -0.47175140967125284 -0.59671425357823493 0.26228416357381268 0.55855281140276059 -0.096197116445136344 0.064820388407738946 0.047516119560060285 0.11596948355676666 -0.019519298154739611 -0.0074361143090596821 0.41137174308809454 0.031093934867468351 0.026966531022760257 0.29952211696618619 -0.23847531588121493 0.11481252265118416 -0.019584729559792461 0.14852940125933498 -0.12012751620908814 0.36405645086387334 0.35875272672546921 -0.22356147740131765 -0.10025951106530016 -0.22794498342430214 0.12237024321147073 -0.34096140042397727 -0.44422380646408316 0.14359685379681233 0.14142321297059435 -0.018676137270251653 -0.21576533643586737 0.022268814250954193 0.28301770368188711 -0.3219473432258268 0.34392067523773556 -0.23610156035146609 -0.36121624352460235 0.0099716271775696658 0.040587241512320904 0.24816060148465946 -0.4165535206709079
leaf_weight=78 88 75 31 42 31 135 90 90 131 54 36 44 113 126 30 115 61 31 115 34 132 84 78 130 50 60 76 48 96 126 32 35 89 31 31 65 44 51 176 42 133 34 35 39 104 34 76 176 94 155 47 61 35 30 159 50 99 56 142 33 195 50
leaf_count=78 88 75 31 42 31 135 90 90 131 54 36 44 113 126 30 115 61 31 115 34 132 84 78 130 50 60 76 48 96 126 32 35 89 31 31 65 44 51 176 42 133 34 35 39 104 34 76 176 94 155 47 61 35 30 159 50 99 56 142 33 195 50
internal_value=-0.00032693 -0.263496 0.15611 0.232391 0.309439 0.0592707 -0.366586 0.110854 0.161219 -0.120304 0.209089 -0.058629 0.160058 -0.183087 0.214107 -0.0156585 0.381586 0.0176001 0.207368 -0.298746 0.272856 -0.429873 -0.488528 0.323337 0.434417 0.0285698 0.150982 -0.0745666 0.0102653 0.0390828 0.140618 0.279965 -0.03493 -0.118689 0.139661 -0.1596 0.00856561 0.083046 0.17129 -0.242542 0.402136 0.283665 -0.345333 -0.105928 -0.271789 0.238351 -0.390623 -0.413241 0.10524 0.101358 0.0718561 -0.142853 0.115512 0.16884 -0.362761 0.409195 -0.201687 -0.427848 0.0348372 -0.0356964 0.264743 -0.344783
internal_weight=4863 1813 3050 1706 819 1344 1054 796 887 759 550 383 521 376 353 548 466 275 339 509 196 545 218 222 244 313 191 235 282 222 157 148 179 218 285 153 230 337 207 231 194 265 278 187 158 166 327 252 126 286 182 187 96 61 243 92 141 140 186 72 229 209
internal_count=4863 1813 3050 1706 819 1344 1054 796 887 759 550 383 521 376 353 548 466 275 339 509 196 545 218 222 244 313 191 235 282 222 157 148 179 218 285 153 230 337 207 231 194 265 278 187 158 166 327 252 126 286 182 187 96 61 243 92 141 140 186 72 229 209
is_linear=0
shrinkage=0.03


Tree=11
num_leaves=63
num_cat=0
split_feature=7 272 50 87 99 1 189 3 274 180 1 174 1 1 174 274 177 272 3 7 7 1 1 41 189 194 177 1 189 3 87 1 1 3 1 204 61 201 189 225 3 213 1 174 177 177 50 189 177 276 201 189 200 189 280 174 177 207 265 60 175 99
split_gain=208946 35619.9 14833 10549.6 5441.99 3867.97 3508.94 3416.82 2364.29 2243.43 2242.93 2750.7 2221.8 1823.93 2496.88 1591.85 1513.97 1462.76 1451.25 1361.1 1335.41 1278.22 1218.8 1204.73 1140.42 1094.13 956.249 945.306 915.036 861.614 850.186 836.749 822.544 775.289 760.166 749.839 719.215 702.59 693.37 693.006 689.308 687.684 605.357 579.021 558.758 554.607 551.361 540.144 520.867 509.668 492.3 480.905 476.516 432.599 407.407 404.193 393.607 393.53 378.216 371.788 367.939 367.272
threshold=16.515295982360843 78.717426300048842 20.137911796569828 0.4273167103528977 -0.12709287554025647 387.94244384765631 3.2465058565139775 6.2908191680908212 29.004074096679691 3494.675659179688 367.10510253906256 3483.028686523438 369.63214111328131 408.90673828125006 3401.3273925781255 -16.937700271606442 2.8364859819412236 60.746269226074226 5.2713763713836679 18.243975639343265 5.0928246974945077 432.04837036132818 453.21083068847662 3391.889770507813 1.766173303127289 0.386854037642479 24.846522331237797 401.90690612792974 1.2290129065513613 4.1543927192687997 -1.4605854153633115 433.52867126464849 424.95545959472662 3.857648611068726 353.16508483886724 17.925589561462406 134.19892120361331 -0.044129978865385049 3.6858499050140385 0.0016872172127477827 4.9018485546112069 0.010151339229196312 430.14030456542974 3214.0231933593755 15.005707740783693 -16.274522781372067 14.618525981903078 12.356015205383303 -27.569205284118649 0.7824782431125642 -0.17811337113380429 1.5301073193550112 0.89595818519592296 0.901462882757187 -0.37457041442394251 3505.4345703125005 -13.1862416267395 0.017619123682379726 -0.12940952181816107 17.859758377075199 468.42695617675787 0.57224547863006603
decision_type=2 2 2 2 2 2 2 2 2 2 2 2 2 2 2 2 2 2 2 2 2 2 2 2 2 2 2 2 2 2 2 2 2 2 2 2 2 2 2 2 2 2 2 2 2 2 2 2 2 2 2 2 2 2 2 2 2 2 2 2 2 2
left_child=1 3 8 7 15 37 13 10 19 12 26 24 -6 45 25 28 32 31 46 29 27 -16 -11 34 -12 -15 41 -9 54 59 61 -8 50 51 -17 -10 -33 -4 -21 -40 -25 -1 -13 -29 -24 -5 -14 -19 -39 -32 -7 -18 -30 -36 -3 -31 -42 -50 -53 -2 -34 -22
right_child=2 4 5 6 9 16 17 20 35 22 11 42 18 14 21 23 33 47 -20 38 30 -23 44 40 -26 -27 -28 43 52 55 49 36 60 -35 53 -37 -38 48 39 -41 56 -43 -44 -45 -46 -47 -48 -49 57 -51 -52 58 -54 -55 -56 -57 -58 -59 -60 -61 -62 -63
leaf_value=0.0022574496552820039 -0.14864240727575881 -0.0030181126691857163 -0.40206438780029452 0.29010418562263302 -0.034719410167313509 -0.22130558614421661 0.17735661088705634 0.19283428320734519 -0.00059135004878044131 -0.058419471605254146 0.20401737059106614 -0.014992131581338893 0.15740162263854113 0.54262212230831453 0.077571754204498619 -0.085576092816713273 -0.3468060869743852 0.15158841027542647 0.29255549225313904 -0.21740504451504691 0.10981626350769363 0.28592273645214755 0.10898920495785884 -0.18284024057108247 0.11583815484527175 0.36790583461498882 -0.12498528369247457 0.47674867790994913 -0.26886760104059376 -0.042199219608374236 0.354946308507819 0.34988012389989542 -0.25123866010380141 -0.30775460044065084 0.12795059630911529 -0.15066100052684969 0.21229310282510278 -0.40346765364150816 -0.2457974894679322 -0.42103979653409673 0.042342269930327046 0.16995832628883001 0.10116368367299793 0.29488032887058868 -0.02412676712396309 0.16761896083125161 0.049620700865423285 0.012347859561912656 -0.48248358177303807 0.18425932417406099 -0.33992387760905435 -0.38083289971152579 -0.14000953137586658 0.013418654440429762 -0.11068448256592535 -0.14842289935595723 -0.095083781834980868 -0.59256218933133675 -0.48706878220524769 -0.2780015142927062 -0.13294598562364354 0.22487752973673206
leaf_weight=82 33 44 120 54 70 40 125 38 77 159 291 112 113 37 31 38 77 74 55 133 105 188 87 48 243 285 39 31 45 53 32 73 82 108 57 49 66 42 44 39 32 30 63 34 42 89 69 38 77 32 167 55 62 62 113 83 45 54 77 53 34 33
leaf_count=82 33 44 120 54 70 40 125 38 77 159 291 112 113 37 31 38 77 74 55 133 105 188 87 48 243 285 39 31 45 53 32 73 82 108 57 49 66 42 44 39 32 30 63 34 42 89 69 38 77 32 167 55 62 62 113 83 45 54 77 53 34 33
internal_value=-0.000316374 0.130824 -0.295177 0.200707 -0.00545381 -0.368603 0.269196 0.138371 -0.173662 0.0573006 0.107746 0.130102 0.113709 0.309692 0.334919 -0.0738435 -0.327137 0.195457 0.157557 -0.206605 0.224651 0.256493 -0.00283691 -0.0242534 0.163926 0.388153 0.00274095 0.31266 -0.126774 -0.15428 0.179627 0.23401 -0.281166 -0.373866 0.0310556 -0.0590488 0.284772 -0.459024 -0.260273 -0.328584 -0.0937147 0.0473156 0.0268407 0.382263 0.0656408 0.214063 0.116606 0.104426 -0.498262 0.27007 -0.317135 -0.407851 -0.194431 0.0683651 -0.0805507 -0.10711 -0.0379519 -0.5283 -0.443148 -0.228629 -0.216737 0.137496
internal_weight=4863 3366 1497 2225 1141 933 1060 1165 564 595 860 709 307 684 541 546 640 376 237 438 305 219 288 282 534 322 151 103 264 222 202 264 323 317 157 126 139 293 216 83 125 112 175 65 129 143 182 112 173 64 207 209 107 119 157 136 77 131 132 86 116 138
internal_count=4863 3366 1497 2225 1141 933 1060 1165 564 595 860 709 307 684 541 546 640 376 237 438 305 219 288 282 534 322 151 103 264 222 202 264 323 317 157 126 139 293 216 83 125 112 175 65 129 143 182 112 173 64 207 209 107 119 157 136 77 131 132 86 116 138
is_linear=0
shrinkage=0.03


Tree=12
num_leaves=63
num_cat=0
split_feature=7 204 7 99 93 274 7 93 177 186 279 85 177 274 19 279 189 271 189 180 10 183 99 9 183 93 41 111 25 41 231 99 189 48 274 274 93 270 272 7 93 7 279 99 9 198 274 270 272 93 279 19 60 93 180 183 135 19 91 19 7 93
split_gain=196723 31593 18400.4 7334.8 4865.7 3605.94 3540.21 2555.17 2366.39 2097.37 2077.43 1805.29 1647.91 1613.93 1485.45 1485.33 1436.67 1384.93 1375.95 1363.63 1347.63 1198.23 1026.36 1016.08 1013.32 988.557 969.522 935.653 929.327 1082.92 863.42 860.233 831.397 758.824 754.475 734.987 725.935 723.124 711.357 709.457 674.302 658.84 657.976 638.265 619.472 607.251 592.029 534.847 504.045 497.922 484.433 447.075 446.297 439.314 439.593 423.32 422.994 421.118 420.499 419.315 402.262 398.12
threshold=14.210147857666017 18.804517745971683 8.5719161033630389 -0.10732197016477583 0.83756250143051159 10.618555068969728 23.799869537353519 1.1019380092620852 11.373819828033449 3526.2971191406255 -154.18248748779294 91.41736221313478 -10.393707752227781 -39.933010101318352 376.05262756347662 54.615007400512702 -6.0971248149871817 7382.4748535156259 -4.1780431270599356 3503.8344726562505 131.0994567871094 -24.764519691467282 -1.4600414633750913 25.90074443817139 -7.2763705253601065 -0.82623842358589161 3200.102172851563 0.50442272424697887 41.916294097900398 3221.097534179688 0.71073785424232494 -1.8479635715484617 10.793209075927736 6.565361976623536 -11.692550182342528 -3.3445105552673335 3.5199654102325444 27208913.000000004 44.74598693847657 17.452219009399418 -0.034145707264542573 5.8105840682983407 91.91049957275392 -0.31792379915714258 23.261126518249515 12.089785575866701 31.711948394775394 23157310.000000004 143.03469848632815 -1.4287564754486082 208.34441375732425 343.68150329589849 21.134860992431644 -3.1473408937454219 3464.004516601563 -1.1014664769172666 -0.01763914059847593 406.22871398925787 77.433582305908217 416.29574584960943 6.0946531295776376 -1.6633445024490354
decision_type=2 2 2 2 2 2 2 2 2 2 2 2 2 2 2 2 2 2 2 2 2 2 2 2 2 2 2 2 2 2 2 2 2 2 2 2 2 2 2 2 2 2 2 2 2 2 2 2 2 2 2 2 2 2 2 2 2 2 2 2 2 2
left_child=2 5 3 10 8 15 12 16 13 14 22 23 40 -4 36 39 33 -16 37 27 -13 -15 60 42 -11 47 -24 -7 29 -27 50 -23 49 58 53 -14 51 -8 -25 43 59 -30 -9 56 -21 52 55 -12 -37 -17 -18 -6 -36 -10 -55 -20 -2 -42 -5 -3 -1 -57
right_child=1 6 4 7 9 19 18 11 34 24 25 20 35 21 17 32 30 -19 46 44 -22 31 26 38 -26 28 -28 -29 41 -31 -32 -33 -34 -35 45 48 -38 -39 -40 -41 57 -43 -44 -45 -46 -47 -48 -49 -50 -51 -52 -53 -54 54 -56 61 -58 -59 -60 -61 -62 -63
leaf_value=0.22581096624792957 -0.18357790774660193 -0.35974463211027841 -0.056056365980387518 0.47154023487306507 0.0095505822908419826 0.0056659246453506888 -0.372984712397603 0.30402775984768998 -0.19385021119623841 0.1576633129162168 0.00018871867906547591 0.61112366734945089 -0.37847072097583906 0.23106077071760783 0.42879433956902346 -0.23230612822485805 0.19814839985245092 0.18849156512505164 -0.41516060769009688 -0.13505993441497696 0.36149779328585901 -0.051399347267422804 0.44232607005046443 0.46801346967174745 0.022108370948512601 0.17440156835913076 0.24241282331814404 0.18784648907721233 0.33270112384138556 -0.00084097660092107636 0.3474356179700489 0.084699582919367078 -0.31559676119294827 0.20879153444388202 0.10610410987293636 -0.18961231071423187 0.22128575521305141 -0.2059783536770019 0.28403568396035273 -0.1765883798467319 -0.22857998821308265 0.17852458806552549 0.21291923389737399 -0.010619530859450882 -0.020276735946815113 -0.10278761962904547 -0.33677844552350528 0.10643394775508665 -0.31752892294065072 -0.13084357744755987 0.10478341914361776 0.13796132915374237 -0.02747580849061346 9.2640562990954387e-05 -0.13717171916598772 -0.5871229787116502 -0.067299505100684234 -0.11155304604855767 0.30931630271613791 -0.2481610919452282 0.093903216535643652 -0.47171746495513461
leaf_weight=40 50 48 92 30 35 138 114 208 39 76 50 30 202 44 39 77 238 49 76 90 58 49 30 47 143 102 83 31 40 46 30 281 48 32 43 33 71 30 33 81 88 68 111 88 80 41 34 292 199 102 64 81 47 40 44 41 65 41 30 88 44 99
leaf_count=40 50 48 92 30 35 138 114 208 39 76 50 30 202 44 39 77 238 49 76 90 58 49 30 47 143 102 83 31 40 46 30 281 48 32 43 33 71 30 33 81 88 68 111 88 80 41 34 292 199 102 64 81 47 40 44 41 65 41 30 88 44 99
internal_value=-0.000307713 -0.234213 0.155337 0.218863 0.0660519 -0.0970145 -0.340887 0.276983 0.0162931 0.138551 0.152234 0.32392 -0.300233 0.0564457 0.193712 -0.147336 0.223001 0.295389 -0.412911 -0.0211312 0.447229 0.0841356 0.236751 0.296611 0.0692145 0.124351 0.295858 0.0391927 0.168955 0.11995 0.193796 0.0644724 -0.204562 0.328035 -0.0573542 -0.336308 0.145715 -0.33838 0.392609 -0.101529 -0.241035 0.23591 0.272411 -0.071492 -0.0811056 -0.00721277 -0.455677 0.0909144 -0.299436 -0.174612 0.178414 0.0992841 0.0363593 -0.110683 -0.0718497 -0.474214 -0.117997 -0.191524 0.391128 -0.287801 0.156946 -0.505931
internal_weight=4863 1943 2920 1706 1214 850 1093 911 720 494 795 487 699 466 275 511 424 88 394 339 88 374 197 399 219 598 113 169 256 148 332 330 227 92 254 434 187 144 80 284 265 108 319 203 170 131 250 342 232 179 302 116 90 123 84 216 115 129 60 136 84 140
internal_count=4863 1943 2920 1706 1214 850 1093 911 720 494 795 487 699 466 275 511 424 88 394 339 88 374 197 399 219 598 113 169 256 148 332 330 227 92 254 434 187 144 80 284 265 108 319 203 170 131 250 342 232 179 302 116 90 123 84 216 115 129 60 136 84 140
is_linear=0
shrinkage=0.03


Tree=13
num_leaves=63
num_cat=0
split_feature=46 204 46 1 6 1 93 6 1 6 1 6 6 1 1 252 183 189 6 1 206 201 1 6 6 183 231 237 6 192 3 93 1 6 259 6 6 1 1 46 189 183 6 206 6 1 133 183 189 1 1 6 1 40 1 6 276 25 1 276 61 6
split_gain=185775 24680.1 20209.7 9288.84 6723.6 4930.6 4325.11 3552.08 3461.38 2495.87 2611.64 2329.39 2314.34 2454.22 1678.05 1535.8 1368.25 1364.5 1344.7 1283.62 1248.07 1152.85 1121.33 1114.08 1078.15 1015.72 920.476 903.44 861.134 820.978 808.612 798.724 774.594 1386.39 713.856 675.537 667.779 663.604 654.429 645.395 588.396 547.655 544.942 535.241 510.053 494.434 495.76 481.824 476.5 472.765 456.302 407.034 383.798 364.494 360.467 358.216 330.671 320.28 315.518 309.114 296.831 284.745
threshold=14.903661251068117 18.804517745971683 9.3309264183044451 419.47299194335943 3373.8413085937505 406.26652526855474 0.83756250143051159 3209.2480468750005 372.94250488281256 3464.407104492188 361.12760925292974 3605.2895507812505 3519.7541503906255 367.10510253906256 432.04837036132818 130.48433685302737 -1.5193192362785337 8.1651816368103045 3580.656372070313 433.52867126464849 1.3647537231445315 -0.028680306859314438 393.23966979980474 3391.889770507813 3021.578247070313 -1.3583096265792844 0.93676447868347179 0.34877133369445806 3566.0178222656255 12.093746185302736 5.4197759628295907 1.8471716046333315 386.24575805664068 3391.889770507813 47.234674453735359 2866.166381835938 2974.059448242188 450.94050598144537 397.72499084472662 21.439557075500492 7.9836626052856454 8.4033198356628436 2916.622680664063 1.2990025877952578 2772.5922851562505 445.08027648925787 2.2441886663436894 9.8341779708862322 10.996356487274172 379.11672973632818 445.08027648925787 3636.4711914062505 347.75375366210943 2.5815652608871464 425.35385131835943 3204.7416992187505 -1.0183613896369932 29.397833824157718 417.08311462402349 0.61635622382164013 133.32540130615237 2693.5788574218755
decision_type=2 2 2 2 2 2 2 2 2 2 2 2 2 2 2 2 2 2 2 2 2 2 2 2 2 2 2 2 2 2 2 2 2 2 2 2 2 2 2 2 2 2 2 2 2 2 2 2 2 2 2 2 2 2 2 2 2 2 2 2 2 2
left_child=2 9 3 7 19 21 12 8 52 10 41 20 13 17 40 -6 39 34 27 24 32 47 42 44 -5 49 43 -17 38 56 51 35 -8 -34 -4 -12 -24 -20 -9 -7 -11 61 -10 -21 -15 46 -18 -3 -48 -23 -13 -16 -1 -26 -25 -41 -14 -27 -31 -33 -54 -2
right_child=1 5 6 4 15 16 11 28 22 14 31 50 29 23 30 18 45 -19 37 26 -22 25 36 54 53 57 -28 -29 -30 58 -32 59 33 -35 -36 -37 -38 -39 -40 55 -42 -43 -44 -45 -46 -47 48 -49 -50 -51 -52 -53 60 -55 -56 -57 -58 -59 -60 -61 -62 -63
leaf_value=-0.036201250840013272 -0.042331057574453664 -0.31616332602736424 -0.041964625939966749 0.4189841421004673 0.38173475309981314 -0.15399080268659077 0.052191441815669246 0.041580687229701936 0.25022968631359299 -0.19860799857445069 0.037413143725812725 -0.10517902036693608 -0.10920667494149186 0.22550005792701328 -0.080425252899973959 0.18463534072792465 -0.40379595230450516 -0.21787994903376978 0.020484016698947519 0.35425573086170403 0.31103704581175312 -0.44967201501655946 0.32420673395830374 -0.058249966823938897 0.20962275322119581 -0.57720535892980829 0.54477912997530986 0.35956762358199712 -0.032663485923251093 -0.21279372906097974 0.039028603452013373 0.024260411615577987 0.22331280950784327 0.07811211877301627 0.12038589835166931 -0.090957049242471902 0.22766459903294883 0.17256857843339585 0.12707960062440871 -0.18858832500802092 -0.32653117390779346 -0.23611307807806184 0.13581078897672552 0.48265436726757599 0.10580796237982494 -0.21472697486457026 -0.27942719028724783 -0.40627611476601866 -0.40647165838685279 -0.33459667655667458 0.031383627203642565 -0.18229839473342763 0.029810878083310059 0.30774296347864988 0.059021760013290535 -0.28846324025507813 0.0029027511162636297 -0.46365630740809127 -0.10409451725689314 0.13043161755060498 0.12905172719690303 -0.15299156916736531
leaf_weight=32 33 172 128 45 33 100 83 145 52 103 61 32 33 41 70 240 58 35 67 216 39 51 101 43 85 30 32 30 62 39 30 60 133 107 30 93 185 42 182 51 48 51 137 35 149 43 154 81 33 96 70 72 52 59 52 94 83 129 64 42 57 58
leaf_count=32 33 172 128 45 33 100 83 145 52 103 61 32 33 41 70 240 58 35 67 216 39 51 101 43 85 30 32 30 62 39 30 60 133 107 30 93 185 42 182 51 48 51 137 35 149 43 154 81 33 96 70 72 52 59 52 94 83 129 64 42 57 58
internal_value=-0.00029751 -0.24079 0.14266 0.203199 0.274137 -0.330727 0.0441476 0.140778 0.185597 -0.104544 -0.0542283 0.115105 -0.00309479 0.0339026 -0.166498 0.185491 -0.265322 -0.0486776 0.1683 0.351453 0.150777 -0.393026 0.224339 0.0898333 0.290474 -0.432453 0.39205 0.204209 0.0697665 -0.0838394 -0.102305 0.00300689 0.131327 0.158649 -0.011063 -0.0400984 0.26187 0.0792174 0.0892007 -0.212981 -0.239481 -0.157363 0.167423 0.372357 0.131757 -0.309747 -0.326318 -0.345175 -0.302068 -0.37482 -0.0114912 -0.132192 0.054996 0.250031 0.00590389 -0.25351 -0.0290312 -0.485449 -0.145448 0.0680923 0.0818057 -0.112985
internal_weight=4863 1813 3050 1889 884 1092 1161 1005 616 721 398 464 697 478 323 412 533 193 379 472 362 559 475 285 189 306 283 270 389 219 172 256 323 240 158 154 286 109 327 245 151 142 189 251 190 288 245 253 187 147 102 142 141 144 95 145 116 159 103 102 109 91
internal_count=4863 1813 3050 1889 884 1092 1161 1005 616 721 398 464 697 478 323 412 533 193 379 472 362 559 475 285 189 306 283 270 389 219 172 256 323 240 158 154 286 109 327 245 151 142 189 251 190 288 245 253 187 147 102 142 141 144 95 145 116 159 103 102 109 91
is_linear=0
shrinkage=0.03


Tree=14
num_leaves=63
num_cat=0
split_feature=46 50 272 1 87 1 174 186 1 177 1 87 174 177 1 177 272 272 1 271 1 186 19 20 85 84 99 183 43 177 12 1 183 31 183 177 99 183 177 50 135 183 1 177 177 1 1 1 43 271 271 1 183 99 135 57 122 1 253 40 272 56
split_gain=174810 23429.9 19530.7 8545.94 4726.8 4232.22 3674.64 3168.47 2551.15 1884.74 1833.51 1830.85 1956.8 1653.37 1494.8 1474.62 1468.42 1285.73 1166.74 1151.81 1043.13 1155.9 1014.43 1165.4 994.646 1052.9 917.998 883.95 858.94 857.313 805.938 799.544 774.421 744.703 728.314 720.923 675.935 667.005 664.069 661.964 639.233 630.056 616.122 613.999 612.842 596.592 582.977 432.77 412.238 410.519 399.368 396.074 364.845 356.683 350.377 324.865 324.493 323.926 304.704 302.919 301.898 337.945
threshold=14.903661251068117 18.719699859619144 60.746269226074226 419.19374084472662 -1.0875204205512998 406.26652526855474 3342.212036132813 3530.238647460938 389.66973876953131 -19.733393669128414 434.07929992675787 -2.916335821151733 3507.157104492188 28.821033477783207 479.16947937011724 32.570539474487312 84.248409271240249 179.9747009277344 363.49530029296881 6356.3308105468759 372.94250488281256 3300.732788085938 396.45063781738287 368.97282409667974 83.738288879394545 439.06228637695318 2.762667298316956 10.345908641815187 3333.079956054688 2.5886468887329106 66896.531250000015 442.82342529296881 -20.910424232482907 2.1352170705795293 3.2836364507675175 2.8364859819412236 0.38064159452915197 -7.2763705253601065 -15.857493400573729 20.41739654541016 0.03118853829801083 -0.509038746356964 392.06559753417974 9.3418807983398455 -47.032169342041009 394.41735839843756 429.05854797363287 448.23918151855474 3306.362426757813 8662.2944335937518 7437.5798339843759 450.94050598144537 14.818622112274172 0.38064159452915197 -0.016940016299486157 20.489236831665043 0.50574377179145824 373.65072631835943 29.834838867187504 2.411884188652039 160.99454498291018 17.530425071716312
decision_type=2 2 2 2 2 2 2 2 2 2 2 2 2 2 2 2 2 2 2 2 2 2 2 2 2 2 2 2 2 2 2 2 2 2 2 2 2 2 2 2 2 2 2 2 2 2 2 2 2 2 2 2 2 2 2 2 2 2 2 2 2 2
left_child=2 11 3 9 13 17 19 8 43 28 34 27 18 16 29 39 32 41 -13 -5 -11 45 23 -10 35 -26 37 50 42 46 54 52 -4 -20 -8 -12 -34 -21 -19 -7 53 -3 -1 57 -41 -22 -9 -31 -40 -24 -2 -46 -14 -18 -15 -35 -23 -6 -17 -60 -43 -62
right_child=1 5 4 6 7 15 10 14 22 20 24 12 31 30 -16 58 40 38 33 26 21 56 49 -25 25 -27 -28 -29 -30 47 -32 -33 36 55 -36 -37 -38 -39 48 44 -42 60 -44 -45 51 -47 -48 -49 -50 -51 -52 -53 -54 -55 -56 -57 -58 -59 59 -61 61 -63
leaf_value=0.18861918660249904 -0.066682416508660178 -0.30742283557240896 0.21135908114157642 0.51000026753734684 0.069654032977893632 -0.17309522007795822 0.18114470113450773 -0.055706309082745799 0.16761853798480122 0.022410325219954605 0.27830517240487024 -0.11651980109469416 -0.14335342816019031 -0.12196695245819687 0.19164424385010803 -0.29699399480023353 -0.087695800120467265 -0.36012650466424567 0.169720705235886 0.37251359544318935 0.11476843081835296 -0.030750193413705915 0.18694244118018941 0.34580248151790161 0.233585223262333 0.47523339173732654 0.48173090488168763 -0.25663845662897378 0.13990481861158957 -0.10104616473941748 -0.22741411289118249 -0.0631176302394484 0.017329236094978603 0.034917915463998958 0.033207150234779464 0.17041908855783952 0.13930163822892355 0.27996676135514587 -0.45164747629618679 -0.13914252692477522 0.063244641006269475 -0.33439767746609939 0.31224743240576786 0.011029505741582214 -0.28593111176020181 0.19248710612190301 0.083868889337584407 0.0062961591543778889 -0.58603113187111877 0.073307586819156445 -0.16415366996731887 -0.17919622443917627 -0.25731004844246808 0.025076452989095274 -0.0076529295646506085 -0.0659828191343933 0.080847631165657699 0.16438908446202241 -0.46151550727156243 -0.32662400651215712 -0.35121097868276852 -0.45264889002774017
leaf_weight=66 61 199 30 36 69 121 75 34 58 95 124 60 88 43 46 49 134 57 31 113 158 30 103 78 31 35 33 68 90 68 34 102 159 108 50 103 55 194 82 36 43 77 83 85 237 206 128 67 30 40 101 37 36 31 55 39 106 62 34 30 53 77
leaf_count=66 61 199 30 36 69 121 75 34 58 95 124 60 88 43 46 49 134 57 31 113 158 30 103 78 31 35 33 68 90 68 34 102 159 108 50 103 55 194 82 36 43 77 83 85 237 206 128 67 30 40 101 37 36 31 55 39 106 62 34 30 53 77
internal_value=-0.000288861 -0.233576 0.138385 0.209333 0.0571482 -0.318505 0.279784 0.102805 0.151358 0.142232 0.218454 -0.0966068 -0.0622678 -0.0083668 0.032702 -0.258402 0.01891 -0.375308 -0.00221263 0.347881 0.113605 0.130917 0.21128 0.270013 0.259509 0.362302 0.330562 -0.165812 0.213412 0.00801834 -0.101736 -0.125469 0.0688263 0.0363448 0.122068 0.229462 0.0487417 0.314151 -0.445234 -0.232977 -0.0396362 -0.346091 0.257669 0.0738837 -0.256277 0.158801 0.0545405 -0.0477851 -0.488161 0.155251 -0.127534 -0.2716 -0.176642 -0.0664878 -0.0579149 0.00810128 0.0562039 0.114605 -0.355062 -0.39894 -0.383084 -0.411618
internal_weight=4863 1813 3050 1628 1422 1119 794 838 495 834 418 694 464 584 343 544 452 575 238 376 595 500 279 136 293 66 340 230 239 297 132 226 244 178 125 227 214 307 169 431 208 406 149 216 310 364 162 135 112 143 162 274 124 165 98 147 136 131 113 64 207 130
internal_count=4863 1813 3050 1628 1422 1119 794 838 495 834 418 694 464 584 343 544 452 575 238 376 595 500 279 136 293 66 340 230 239 297 132 226 244 178 125 227 214 307 169 431 208 406 149 216 310 364 162 135 112 143 162 274 124 165 98 147 136 131 113 64 207 130
is_linear=0
shrinkage=0.03


Tree=15
num_leaves=63
num_cat=0
split_feature=7 272 7 87 87 6 6 6 183 99 270 270 99 237 189 6 6 105 129 6 93 279 270 183 93 99 279 272 7 93 99 136 57 84 7 272 75 26 0 279 45 87 117 132 270 234 2 7 6 90 274 237 274 87 7 120 175 120 238 18 6 99
split_gain=157971 29498 9390.32 7780.54 5577.69 3255.02 3146.43 2661.48 2527.77 2477.68 2406.53 1661.16 1620.08 1617.02 1515.47 1391.04 1260.57 1177.07 2015.77 1087.16 1072.94 1083.97 1065.98 1045.34 919.107 875.704 843.594 821.802 812.546 811.045 799.106 705.84 679.343 671.764 648.833 644.952 608.878 565.353 533.481 542.883 462.398 459.339 446.472 438.876 438.806 436.873 432.88 405.689 389.645 343.246 329.087 325.91 319.519 280.438 278.598 268.711 255.899 248.517 229.347 225.8 203.294 195.241
threshold=17.04693698883057 74.862815856933608 21.563447952270511 0.57308843731880199 -2.916335821151733 3423.540405273438 3566.0178222656255 3544.823364257813 13.806366920471193 -0.55067440867424 27087428.000000004 25208359.000000004 2.762667298316956 0.38029886782169348 -6.9452414512634268 3370.1899414062505 3255.9895019531255 0.72233757376670849 0.035263117402791984 2954.7275390625005 2.1399482488632207 -282.82032775878901 28905706.000000004 -18.35504055023193 -5.425750494003295 1.2901450991630556 65.028957366943374 94.662109375000014 25.616165161132816 3.0428459644317631 -0.089763049036264406 1.8971290588378908 22.654730796813968 400.85795593261724 6.144930601119996 88.037727355957045 -559.30578613281239 5.4197759628295907 63570.185546875007 -129.1102600097656 2895.223266601563 0.68981146812438976 0.047039290890097625 5.0921394824981698 25549195.000000004 23.710738182067875 34.772678375244148 19.752044677734379 3700.819458007813 418.81275939941412 -28.207734107971188 -0.11539112031459807 5.0884630680084237 -0.47477428615093226 8.0354380607604998 4.9570841789245614 484.94358825683599 3.7765516042709355 1.2973313927650454 404.28663635253912 3234.4941406250005 -0.62510991096496571
decision_type=2 2 2 2 2 2 2 2 2 2 2 2 2 2 2 2 2 2 2 2 2 2 2 2 2 2 2 2 2 2 2 2 2 2 2 2 2 2 2 2 2 2 2 2 2 2 2 2 2 2 2 2 2 2 2 2 2 2 2 2 2 2
left_child=1 3 8 6 14 11 9 12 16 23 15 19 20 26 42 28 53 25 -19 30 21 -5 46 44 -16 43 -11 37 41 54 -6 35 -14 51 -25 -13 -22 -26 -12 -40 -29 59 55 -7 -1 -27 -18 -24 -10 -48 -8 -17 -21 -2 -9 -3 -52 -35 -33 -4 -43 -30
